112 162 112 162 112 144 68 108
162 120 108 132 18 66 72 72
94 72 136 96 60 132 152 174
68 -20 42 -68 54 132 180 162
16 -64 10 2 -20 90 60 110
6 -82 -14 -14 68 82 50 96
-4 -60 -82 10 12 -32 -46 0
-34 -14 -50 -2 -56 -8 -74 -4

34 -72 22 -4 62 26 46 -118
4 34 42 66 136 148 30 6
8 26 42 46 90 114 86 20
14 6 104 94 52 14 34 36
38 14 8 16 10 -12 -2 -28
-80 -40 44 -12 -50 -28 -112 -74
-2 -10 24 52 -6 26 20 -42
32 52 72 116 30 26 -8 2

16 -90 -112 -114 -108 -72 -96 -136
62 -64 -160 -72 -58 -106 -108 -140
54 24 -40 -32 -40 -60 -16 -66
-20 60 -10 -8 -6 -20 16 -10
0 44 22 -34 16 50 76 14
-30 78 18 -46 0 30 30 -76
-48 4 -66 -94 -44 -28 2 -20
-38 34 -2 6 36 12 22 -12

-50 -56 -30 0 -10 54 58 2
-20 -14 -6 -2 44 44 22 -10
84 -2 -10 62 34 6 -14 -32
42 62 60 42 44 82 10 -48
-30 26 12 24 -10 36 66 -88
52 36 20 60 34 0 -56 -106
-10 42 72 20 -82 -98 -128 -82
36 52 56 40 -42 -18 68 34

36 86 68 50 36 84 12 12
26 16 8 4 -70 -18 -72 20
6 -28 -52 -40 -108 -72 -96 -26
-36 -88 -62 -36 -54 -24 -76 -30
28 -44 22 -34 -40 -14 4 22
50 -38 18 -34 -24 2 86 76
88 24 -22 18 80 152 178 28
58 18 -14 -14 56 120 58 -12

-52 -30 -44 82 56 92 8 12
-22 -28 -40 -20 26 -6 -56 -36
30 8 -32 -72 -112 -60 -48 -34
-40 -52 -94 -4 -50 -56 -48 -58
-12 -44 -34 46 -8 -14 -56 -62
-54 -66 -50 -58 -88 -70 -18 -72
-32 -76 -110 -102 -104 -12 22 -64
-66 -86 -142 -78 -20 -68 -14 -32

58 28 14 80 -2 50 62 38
40 -10 -30 -6 52 -12 30 -110
64 14 -70 -14 2 -50 -14 -16
22 -46 -76 14 -80 -98 -14 -72
118 30 4 -24 -66 -120 -42 24
112 24 48 44 -6 -40 28 -2
110 18 80 48 50 22 24 62
60 -48 -56 -60 -98 -54 -20 -14

-36 -30 -44 -6 -12 -24 -72 4
2 -16 -52 -48 -150 -102 -128 -12
-38 -48 -80 -68 -116 -96 -96 2
48 -8 -34 -24 10 0 -52 -6
8 48 74 18 -8 -22 -72 10
106 98 74 42 28 78 38 -4
12 24 -2 10 -16 -112 -150 -72
-74 -26 -18 -54 -68 -144 -110 -76

-44 22 -64 -22 -40 -48 -20 -24
74 36 -76 -8 -62 -70 44 -52
46 88 -112 -76 -108 -64 68 -14
32 56 -50 -124 -110 -32 24 -106
-88 36 -34 -98 -72 -6 -64 -66
-38 -62 -34 -82 -92 -102 -50 -8
-32 -8 -86 -82 -76 -64 26 28
-10 6 -94 -38 28 36 -2 -12

-40 -54 -20 6 4 -52 -60 48
-78 -12 -36 -20 -46 10 -60 12
-66 -36 -68 -32 -48 -44 -36 -22
-92 -68 -94 -80 -78 -108 -140 -58
-140 -100 -106 -70 -80 -90 -100 -98
-134 -146 -70 -162 -204 -150 -34 -68
-100 -152 -106 -202 -172 -24 -18 -84
-130 -114 -86 -30 -28 60 -10 -24

-2 -32 -70 -56 18 34 34 -34
28 30 14 70 -12 16 -6 -50
88 54 102 134 54 22 -14 -4
14 54 120 146 116 130 82 44
14 74 92 120 106 92 -22 32
64 104 88 80 30 8 28 42
62 10 28 132 -18 -30 -24 -2
-20 0 12 -8 -46 -22 -32 26

0 -58 52 -62 36 -40 -28 -124
102 -48 20 0 2 74 0 -248
70 -40 -108 -76 36 -4 -8 -10
76 40 -46 -52 42 28 24 -118
76 44 86 34 -88 -90 20 54
-2 -26 -10 2 -56 -46 -26 -124
12 -36 -74 -114 0 -28 18 -16
38 -82 -102 -66 -20 -32 -62 -120

78 20 2 -48 -62 -34 -26 46
112 58 42 -70 -100 20 -66 14
64 34 22 -98 -10 38 -74 48
58 38 -12 -90 -60 78 10 -16
110 30 -12 -12 -94 -24 14 24
136 52 84 40 10 24 -20 -10
78 42 40 -36 -18 -42 -48 18
108 88 -68 -16 -26 18 16 22

38 -100 -102 -60 -94 -90 -22 -26
24 -54 -50 -126 -168 -172 -118 -178
136 54 46 2 -18 -142 -110 -44
118 82 92 50 32 -38 -78 -216
142 70 20 84 110 28 -38 -40
112 112 36 24 62 -40 -28 -138
138 82 8 -4 -26 -46 -60 -22
60 76 4 -4 -2 -6 -20 -34

-118 -48 -154 -12 -110 18 -74 42
-56 2 -34 -22 0 -24 -70 50
-136 -50 -10 -50 -30 -58 -50 -36
-86 -14 12 18 -28 6 -34 -68
-134 -30 -24 16 26 12 -22 12
-44 -56 20 0 90 -16 -72 -78
-110 -74 -8 60 42 -30 -80 -122
-96 -24 -16 72 -22 -46 -84 -78

-22 0 -34 -52 -34 -46 30 -58
-4 -74 -46 -114 -184 -200 -46 -46
24 -6 -14 -18 -62 -146 -34 -12
54 -38 8 38 20 -26 -38 -24
-22 -10 12 12 -22 0 -14 -24
60 -80 -40 -20 -6 0 96 2
-26 -66 -56 20 42 22 20 -10
52 -32 -36 8 54 2 8 -14

-118 -156 -134 -152 -138 -118 -170 -78
-92 -118 -90 -46 -80 -76 -126 -110
36 14 38 -14 -46 -14 -26 -52
-2 42 16 46 32 -46 -90 -72
34 58 44 28 26 -12 -70 -100
72 80 68 -20 -22 -76 -152 -114
6 42 -12 -76 -102 -142 -120 -70
28 40 52 52 -10 2 -4 -10

-10 -36 -38 4 -50 -26 -50 -14
104 66 2 -30 4 -24 -78 -70
40 54 6 38 -54 -10 -82 -16
50 22 44 26 12 -50 -106 -88
6 2 44 40 78 8 -26 -24
12 -32 44 36 2 4 -28 -30
-2 -18 28 32 -26 -30 -48 -14
-16 -64 -28 -8 -82 -14 -32 10

-26 -8 -50 -48 -94 -78 -22 70
-112 -66 -98 -46 -116 -80 -50 26
-128 -10 -6 -34 6 42 -54 -8
-122 14 32 -42 16 34 -54 88
-86 50 32 -20 90 12 14 108
-36 36 16 56 38 108 124 102
38 42 56 64 74 138 72 54
-32 76 40 44 94 30 -8 14

-22 24 42 64 70 10 66 58
8 34 38 70 44 -4 26 10
-16 -22 -2 26 -10 -14 -6 16
-2 -90 -28 18 44 -14 26 48
-66 -54 -52 36 -6 28 30 60
24 -32 -28 16 66 52 80 118
34 30 44 12 -6 54 88 98
16 12 4 -56 -54 58 72 98

44 14 4 6 12 48 64 76
-14 44 136 100 118 146 132 56
114 120 196 156 184 172 44 98
4 68 170 124 194 140 52 62
40 60 118 106 108 122 56 30
-50 26 134 78 48 66 14 8
64 36 138 -2 20 16 -34 -60
-2 62 122 146 -4 88 -62 8

-12 -102 -56 -170 -104 -196 -84 -112
-30 -76 -140 -136 -186 -102 -76 -4
42 4 -32 20 80 92 72 2
84 60 22 116 162 116 84 78
144 232 114 86 32 114 184 58
158 202 190 130 132 190 226 196
64 116 126 122 192 64 102 64
202 166 230 146 152 28 46 16

-30 -60 -66 0 -18 34 2 22
52 134 78 162 116 164 106 94
68 158 118 130 50 46 50 80
42 126 84 62 100 14 82 44
-26 70 104 144 94 84 14 -20
68 32 44 16 -38 16 32 18
46 -2 -44 -88 -146 -94 -64 -102
52 52 56 -52 14 38 88 50

16 110 52 94 64 36 16 -32
-58 56 16 20 42 18 12 20
-98 8 -20 -36 8 -8 -8 -78
-64 -4 -6 -8 -18 -52 64 -6
-28 4 2 -30 0 -54 16 14
-42 -22 66 -6 8 46 70 4
-28 4 22 -50 24 -4 18 -64
18 6 10 6 -44 4 -2 -32

16 -30 -16 -2 36 48 52 -44
34 -68 -80 36 90 106 68 -12
-22 -20 -72 12 56 64 116 -70
-44 -28 -62 -72 -114 -52 0 -102
28 -56 -102 -138 -108 -62 -56 -42
-26 -82 -54 -34 -32 -70 18 52
16 -28 -14 50 0 92 170 140
-78 -66 -106 22 -44 36 -50 44

-22 -16 -10 -8 -74 -54 -34 78
-8 -126 -110 -102 -108 -128 -102 -26
-24 -38 -38 -70 10 -2 -38 16
90 62 4 -34 60 -14 -54 4
118 142 88 -32 -2 -28 -26 -12
148 116 36 -92 -46 -12 -28 38
94 98 16 -20 38 -6 4 54
124 112 84 -36 22 30 96 6

-14 48 38 68 -26 18 -26 90
-8 58 74 38 52 -52 -62 -34
40 50 26 -10 30 -42 -22 -28
-38 6 16 34 56 34 54 -32
-26 -10 -40 -20 50 68 2 -88
-16 48 -76 -108 6 0 -32 -74
34 26 4 -112 -162 -166 -100 -78
28 12 -4 -80 -58 10 128 82

-66 -88 -18 -28 2 -94 -70 -66
16 -2 10 -30 -44 -32 -42 -26
-16 -34 -38 -34 -18 18 -42 16
18 -46 -96 -94 -40 -22 74 40
6 -54 -92 -96 -122 -128 26 44
-8 16 24 12 10 72 116 130
-38 -30 -4 76 78 70 88 126
-72 -12 -92 20 -70 34 -52 -2

60 90 80 158 88 140 96 88
54 28 24 88 78 134 96 16
-18 -40 36 24 44 64 116 -18
-44 -40 6 12 -30 12 136 -34
-16 -36 -54 22 44 18 20 -34
-34 -6 -6 -6 24 -34 -122 -52
-16 52 66 46 32 -92 -42 -4
-34 30 38 58 -40 8 34 20

-58 -68 -70 20 -14 -38 -62 -6
28 -70 -106 -42 0 12 -14 -22
-44 -50 -14 -10 -50 -58 -110 -8
10 2 40 -78 -84 -106 -82 -16
-94 -30 68 60 -82 -52 -50 -16
-4 -12 52 64 26 32 -52 34
-98 -30 -24 8 14 6 -88 -30
16 -100 -36 -76 -38 -14 -36 -30

24 -42 -8 -2 52 52 -52 -52
38 -84 -4 8 122 134 -20 -176
98 -48 32 56 -12 32 76 -42
96 -16 -26 -20 -18 -20 44 -86
44 -32 30 6 36 6 -8 2
-10 -46 46 18 44 42 14 -68
16 -104 -34 42 48 -36 -38 -20
46 -62 -86 10 -44 -104 -82 -68

40 6 24 22 24 -44 -28 -92
14 4 -28 -40 10 -74 -68 -40
94 -12 -4 0 4 -36 -76 -42
-12 12 -22 -44 38 12 -4 -94
16 -60 -162 -150 -116 -114 -56 -126
-6 -66 -174 -186 -124 -2 -46 -104
0 -88 -154 -70 -24 -112 -46 16
-46 -10 -66 -18 -36 0 2 0

-22 4 -38 -8 -2 2 106 -14
116 126 90 82 128 72 146 66
36 66 30 -18 38 -14 -14 48
14 -50 -28 -122 -48 -122 46 20
-54 -142 -56 -120 -66 -64 62 64
44 -60 -40 -64 54 48 48 50
-6 -78 -44 -4 26 26 64 74
-72 -44 -56 -52 -30 -46 -36 -46

142 92 198 120 158 66 66 2
132 38 78 58 16 76 2 -54
148 -22 42 -14 -26 10 -98 16
82 -10 -32 2 12 82 18 16
142 62 12 -68 78 32 30 80
40 56 48 52 106 128 16 -2
78 58 60 64 94 126 108 58
28 32 -68 12 50 90 -28 58

32 50 20 -10 48 -44 -12 -8
26 -8 -8 -4 66 2 -44 -64
50 44 52 72 160 76 40 26
68 152 102 -20 70 8 28 38
60 148 158 26 20 10 64 2
42 110 158 134 48 118 58 -4
-16 48 90 58 108 108 10 24
-58 -22 42 6 28 12 -54 -48

-20 78 56 -26 4 60 32 36
-6 12 16 -52 -6 34 36 72
-58 -88 60 -20 -32 36 -8 30
-4 -88 50 100 62 52 8 138
8 -84 30 110 0 26 76 54
34 -38 30 -22 -28 58 38 -8
-12 -40 -30 -50 -32 -24 -34 -40
34 10 -14 -2 12 24 62 -20

134 -64 58 -52 70 -58 38 -94
20 66 18 30 -4 4 22 -42
124 -34 -42 -46 2 34 34 -20
118 6 -16 22 28 54 50 48
122 66 32 -36 2 8 42 100
68 72 84 20 -38 -12 24 106
106 -10 80 16 -14 -22 -36 30
104 72 28 -8 -42 2 52 66

-38 -76 14 -80 -2 -54 -22 -62
28 -14 10 -18 -28 -56 -38 6
84 26 30 -18 90 58 10 56
114 42 44 22 104 118 90 72
114 106 68 16 70 36 70 12
68 104 84 44 74 -28 -92 -70
86 22 60 64 54 -70 -76 10
60 68 40 12 18 6 -40 34

-22 -76 -34 0 -50 -110 -138 -18
-72 -74 -38 -34 -32 -16 -70 -66
-28 -42 -62 -2 -6 -10 14 -8
-2 -18 -52 10 -20 -50 -14 -28
-42 70 12 16 -18 -112 -30 64
-80 -44 68 -20 -46 -28 16 18
-30 90 24 -52 -30 30 48 10
-16 -12 36 -12 6 50 -28 -2

-62 -80 -78 4 -6 42 -42 -34
-36 -42 -82 -50 -68 -32 -38 -30
-60 -102 -170 -150 -74 -50 38 -12
-82 -86 -116 -118 -40 -2 30 8
-58 -66 -12 -28 -18 24 30 44
-60 -128 -84 -60 54 -44 -4 -6
2 -74 -64 -28 -2 26 36 -18
-8 -60 -16 -16 58 58 72 -10

84 -10 88 -42 4 -84 64 72
14 32 68 -28 50 -42 -24 24
42 44 52 -68 -8 -32 -48 38
52 -28 82 36 -22 -48 -76 -30
4 -52 -38 -54 -24 58 8 42
-14 -66 -122 -42 -64 -58 -110 -24
-32 -76 -34 -114 -108 -92 -130 -48
-86 -78 -58 -10 8 -56 -46 16

-2 12 18 -44 -18 -30 -6 54
-60 -70 -102 -98 -96 -104 -154 -50
-8 2 -34 -82 -74 -106 -114 -148
-58 -22 -48 -94 -56 -114 -138 -68
-66 -50 -60 -128 -90 -140 -118 -52
-48 48 56 60 2 20 28 62
-54 26 76 0 30 -18 4 18
-28 20 32 -60 30 2 44 -10

74 136 118 56 70 70 66 42
60 126 94 110 64 32 26 18
44 98 138 74 22 102 42 8
70 78 44 50 4 18 -14 0
110 130 80 24 -2 -16 -26 12
60 104 64 8 -102 -60 44 82
110 118 76 48 18 78 108 58
152 -28 168 -12 170 -34 164 -42

60 94 132 154 140 108 44 -12
102 180 236 228 186 138 80 20
106 172 124 116 60 72 60 18
96 176 198 144 162 104 20 74
-4 128 210 194 84 58 88 118
-6 10 54 142 104 46 54 32
28 36 2 26 8 52 58 28
-14 -2 26 50 88 80 94 56

-28 74 16 50 -12 20 28 -28
86 148 188 148 170 190 144 84
78 128 216 192 212 180 160 74
132 128 162 88 126 128 104 86
104 128 98 26 96 94 112 110
90 82 82 30 0 54 46 12
104 188 98 6 -8 -4 -30 32
138 190 158 46 -40 12 74 20

-88 -142 -172 -138 -80 -48 0 40
-42 -72 -132 -92 -18 -58 76 100
-94 -20 -24 -24 -80 -104 -24 82
-68 -24 -18 -48 -114 -88 4 -50
-104 -76 -58 -54 -112 -46 -20 -62
-90 -110 -2 -62 -36 -62 -82 -68
-36 -4 -38 -34 -76 -104 -110 -52
-66 -66 -6 -6 -80 -68 -94 -56

-42 -8 34 4 -6 26 14 14
40 86 38 78 28 -8 54 74
92 142 166 110 70 18 74 52
110 86 204 178 92 62 34 -12
98 106 80 116 46 -4 -18 -124
84 80 32 20 -42 -60 -124 -126
94 54 8 -44 -102 -142 -120 -86
92 24 -28 -108 -90 -122 -88 -58

44 62 84 86 56 100 40 32
150 56 80 68 -6 22 16 -40
142 172 68 72 84 48 72 90
84 144 126 44 86 44 132 78
28 108 202 166 112 130 144 126
70 34 42 74 120 78 -2 -4
24 8 -42 70 136 104 -10 4
-6 14 30 70 104 4 -78 -48

46 -28 -42 -60 6 -22 -66 -42
0 -30 -18 -30 0 -24 -102 -70
32 2 86 26 -46 50 -110 -104
-30 -26 44 -22 -88 -2 -90 -124
-6 18 44 -12 38 16 -30 -68
-48 24 68 16 -34 20 -20 -90
14 6 52 -28 -78 -6 -60 -86
-8 -12 -4 -64 -30 -10 -8 58

-8 54 32 62 -32 12 -52 40
-62 -24 4 4 6 -38 -16 -104
26 24 76 124 96 92 152 -14
36 88 110 76 126 92 72 62
-4 32 42 -2 0 -50 8 62
18 -10 74 -58 -116 -106 -106 -104
4 -32 -78 -138 -176 -56 -30 -60
38 -42 -50 -130 -44 -32 -26 -48

-32 -74 -76 -62 -60 -76 -40 -28
-82 -140 -148 -92 -114 -74 -28 -4
-50 -72 -140 -116 -128 -48 -4 18
-68 -80 -114 -116 -114 -116 -20 -18
-108 -52 -18 -22 -4 54 68 22
-126 -70 -38 86 116 182 90 32
-124 -132 -110 -58 20 -12 -154 -72
-62 -6 -30 -90 -48 -60 -62 -36

-88 -174 -132 -94 -72 -108 -92 8
86 92 100 92 22 42 28 16
-46 4 28 64 40 96 -12 110
140 64 26 8 58 28 -4 -66
0 76 106 58 16 -54 8 66
162 118 114 110 88 102 110 24
48 92 30 10 72 80 34 108
106 30 -6 -2 16 -96 -70 -120

-38 -80 -134 -44 -110 -50 -46 -46
-36 -134 -154 -62 -112 -84 -54 -38
-36 -26 -38 10 6 -46 14 -52
-94 -10 -68 -38 -24 2 62 -72
-62 -46 -108 -72 10 -8 -50 -84
-100 -84 -156 -16 -82 -104 -72 -6
-90 -26 -64 -52 -158 -162 -100 -42
-32 16 -36 -8 -66 -26 0 70

2 -112 -6 -124 50 -78 18 -10
-28 -102 -14 -102 -84 24 -50 46
-56 -30 -30 -78 -94 -2 -30 20
-50 -74 -76 -82 -72 -22 -18 40
-2 -2 40 -28 22 36 54 64
8 -32 -56 16 38 44 56 34
-38 -74 -12 44 -2 50 84 10
-64 -124 -12 28 18 34 -8 6

-38 28 2 36 -2 42 42 66
12 50 74 122 100 92 54 58
48 142 138 78 130 70 6 72
66 102 104 82 180 98 26 76
86 166 108 112 142 44 94 104
128 220 188 144 134 160 72 62
142 250 316 164 166 110 148 62
8 64 144 96 -2 -46 -28 -10

-56 14 -40 94 52 96 16 -24
18 16 96 44 66 58 88 -32
66 96 40 36 80 40 24 -14
44 40 34 32 54 12 20 -114
72 84 38 94 84 22 40 -62
26 58 130 30 -60 -134 -74 -84
20 36 -2 -18 -60 -68 -38 -20
-42 -62 14 2 32 -24 62 -24

-10 -12 -38 -12 -78 -74 -54 78
-52 -82 -174 -182 -80 -92 -98 -30
-88 -86 -90 -62 -18 -62 -66 36
-22 -26 -32 -38 -36 -54 -14 -16
30 -34 -100 -60 -30 -8 -18 -48
48 -44 -44 -164 -34 -80 -136 -126
66 -62 -72 -112 -38 -14 -16 -34
76 -16 -8 -8 42 -34 8 -82

-44 -54 -28 -78 -56 -52 -60 72
-54 0 -56 -56 -6 -78 -44 180
-122 40 -76 -108 -52 -100 -8 158
-56 -16 10 -16 -78 -8 -24 26
-164 -36 -42 -30 -20 -10 -12 30
-70 -14 -6 -10 44 -66 10 44
-168 -36 94 34 -148 -152 -106 16
-54 -38 82 -78 -56 -60 50 32

-2 -36 -14 -80 -58 14 -22 -18
-100 -70 -58 -74 -64 -4 -34 -2
-36 -94 -62 -86 -74 -82 -86 -16
-50 -66 16 -18 -100 -38 -146 -36
-6 -22 8 40 2 -64 -90 16
-16 -52 -32 44 78 -24 0 -34
-6 -46 -40 24 14 -34 0 6
-16 -4 40 16 -70 -14 -32 42

-22 4 30 32 50 50 -2 -50
-20 -14 -30 -10 0 -44 -90 -118
-8 10 -2 -38 -34 -34 34 24
-14 14 12 -18 -16 -102 10 -32
-86 -34 -56 4 -66 -96 -58 16
-92 -80 -68 -48 -118 -76 -108 -86
-82 -118 -44 -48 -94 -74 -20 -6
32 -92 20 -100 50 -90 68 -70

-12 10 -72 -58 -124 0 -8 -40
-6 0 -48 -32 -6 18 80 84
-2 -20 -8 -36 12 -68 0 10
-36 -8 -38 -52 -54 -52 -16 78
-68 -36 10 -22 -44 -70 -24 -30
-86 -86 -42 -70 -32 34 -14 -16
-88 -120 -38 -26 36 80 -34 -96
-54 -58 38 34 36 -4 -46 -76

12 -50 -36 10 -40 12 52 84
-54 -68 -80 24 34 34 124 80
6 -16 -24 88 180 68 100 38
20 0 -6 -8 34 76 120 -30
68 8 -14 -38 16 -54 -60 -34
22 74 62 2 16 18 30 -56
28 -32 18 -22 -4 52 90 28
-2 -50 26 34 32 -12 10 8

20 130 132 94 60 96 92 88
22 20 80 48 -2 26 -20 44
-30 64 148 132 32 12 -12 22
52 -20 66 80 42 -16 36 66
-4 48 -18 38 60 70 144 54
94 66 26 106 116 30 66 -12
80 4 -6 62 88 40 10 -72
18 -2 -26 34 0 -24 -94 -76

-82 20 70 68 42 42 -18 -18
92 34 78 26 48 0 -102 -2
-112 30 14 46 2 110 18 -24
42 -18 28 50 76 74 114 12
-146 -22 0 28 -26 56 66 16
52 -96 -40 -40 -50 0 32 6
-234 -38 40 92 38 14 32 -14
-32 -68 20 36 34 -26 12 18

26 12 86 72 38 30 38 -106
76 30 10 62 124 84 90 -94
88 14 42 138 138 118 102 -40
74 -2 40 30 40 14 -34 -108
58 -22 20 36 66 48 -38 -44
24 4 16 20 -62 -36 28 6
34 -26 -108 -80 -30 -10 60 30
68 -8 56 -40 26 62 64 42

44 -14 64 30 40 44 80 32
66 -12 64 -8 14 114 124 72
110 96 48 36 80 104 132 98
96 52 66 56 90 4 16 46
44 0 -2 14 4 -66 -100 -50
-2 -54 -50 -18 -60 -114 -58 -64
12 -12 -110 -102 -32 -28 -2 -8
38 10 -90 -42 -52 -16 -166 -44

12 -58 116 46 12 60 60 -4
-2 -8 44 52 30 82 20 40
14 12 -32 68 48 88 -20 -54
-12 -60 -82 -28 -18 -8 -80 -18
24 -48 -74 -10 -40 -98 -44 14
6 26 -18 18 8 26 78 172
24 88 18 62 72 136 198 128
-30 -6 14 46 28 16 -18 -20

-52 -58 -88 -78 -56 -32 0 -124
-34 -24 -84 -48 -122 -94 -44 -108
10 -16 -28 -16 -24 -48 28 -106
-12 8 -78 -48 -42 8 40 -66
60 16 -94 -74 -32 -22 -88 -106
6 18 -62 -106 -64 -50 -50 -40
60 16 -34 -78 -84 -4 -18 -44
42 26 -26 -34 -60 4 2 -36

70 156 66 80 2 110 30 34
60 42 30 6 -40 -16 -38 -58
112 82 10 98 78 98 86 -12
54 138 36 30 88 158 178 48
114 102 0 -24 14 104 126 32
-12 52 -32 20 78 104 112 62
6 74 36 80 122 118 72 58
-36 52 32 40 50 -22 36 6

-38 -80 2 -52 6 66 22 18
-28 -26 42 82 92 164 98 66
72 106 170 206 142 146 114 68
90 126 196 170 100 126 54 32
110 154 136 84 110 148 66 56
56 124 152 212 222 108 64 38
26 62 56 124 106 -50 -20 -26
-32 -4 48 8 -122 -90 -100 -66

-18 -48 22 12 30 -38 50 -6
-36 -18 18 54 -36 -24 58 -6
32 38 -14 -66 22 26 38 -24
-30 -18 -48 -98 4 26 -106 -176
-34 -30 -48 -60 14 -28 -150 -128
-76 -64 4 24 -90 -144 -104 -54
-2 74 56 -48 -122 -174 -60 10
20 56 20 -80 -90 -50 24 -2

56 42 40 -22 56 -8 20 -40
34 120 112 40 118 146 48 132
14 120 148 80 32 72 68 38
4 56 122 68 62 40 56 142
88 -12 38 14 -56 14 0 -22
10 26 6 82 -16 30 38 80
44 48 38 130 108 60 122 8
26 122 106 142 92 84 106 100

78 124 110 100 62 62 82 114
-104 6 18 2 0 16 34 10
64 66 126 98 98 106 30 20
-22 -14 68 70 76 86 54 92
130 66 52 68 50 40 66 -12
8 80 60 92 86 68 52 10
122 86 124 144 90 34 92 -42
24 92 116 12 66 2 32 34

96 50 52 22 60 92 96 16
18 36 16 40 98 66 68 -4
34 60 -12 -4 56 48 100 50
36 24 -30 4 22 60 8 26
8 20 118 82 48 70 72 62
-74 -38 26 70 48 42 78 128
-8 -28 2 34 40 -64 -54 -24
-30 -14 54 -14 -24 -32 46 0

2 12 2 -32 -62 -14 46 -54
24 86 66 10 -40 28 74 70
24 22 -2 -46 -62 14 62 40
-34 -70 -112 -78 36 26 -50 32
6 10 -72 -32 14 -12 14 0
8 16 -36 -24 30 52 88 74
66 42 28 48 78 106 136 -2
64 68 24 48 102 126 84 -42

56 54 72 74 92 76 68 24
114 96 108 60 30 -6 48 72
54 -4 32 52 80 -4 8 90
28 48 2 52 106 68 48 94
36 88 14 2 56 50 68 38
50 62 42 -10 20 82 134 152
92 136 38 26 112 184 246 152
18 30 -26 2 24 72 14 -12

-40 -10 0 -38 -12 -92 -4 68
-46 -36 -84 -140 -70 -110 -48 -92
-66 -92 -96 -96 -88 -108 -60 30
-36 -68 -126 -76 -106 -116 -84 -126
-48 -60 -94 -126 -140 -98 -100 14
-42 -30 -62 -82 -128 -90 -66 -72
-32 24 -38 -34 -48 8 -30 120
-22 -90 -2 -26 8 -84 -38 -64

20 42 40 90 -20 12 -8 100
34 0 -28 12 58 70 -8 -56
82 124 96 100 92 92 -36 22
36 60 46 64 38 -36 -16 -66
64 52 62 30 8 6 -4 42
18 74 94 26 36 50 46 0
12 32 -2 -6 24 56 6 36
-22 -54 6 6 44 -32 -26 -24

-32 -46 -8 -38 -8 -28 -4 4
22 24 28 140 102 102 -28 28
74 92 104 112 116 104 -20 30
80 160 74 20 82 76 48 74
28 104 114 130 136 130 72 54
-22 90 78 126 184 122 70 24
-44 28 62 62 32 -20 -130 -80
-34 6 42 -78 -60 -52 -50 -12

-42 -40 -58 -12 -10 38 38 58
-44 -50 22 30 84 36 74 58
-44 -38 26 -46 -58 -42 -42 28
-30 -26 -68 -42 -36 -106 -118 -24
-38 -18 20 32 -26 -76 -58 -32
-4 32 28 28 -10 -124 8 -14
22 70 56 56 -10 54 68 58
8 24 28 28 30 10 -16 -26

-2 40 42 40 18 6 62 30
56 174 142 70 16 -48 10 6
68 174 142 102 54 -10 62 56
-26 82 144 150 132 110 46 -24
-14 78 164 104 114 28 6 -88
84 72 132 -24 -106 -104 -88 -118
70 86 76 8 -34 -34 28 54
-8 84 24 -32 82 38 60 18

98 124 118 40 50 14 94 -66
80 38 74 38 40 24 2 -42
92 58 14 42 26 30 -2 -36
22 70 52 -14 16 34 98 24
22 2 36 -16 42 56 74 -32
36 -28 32 -24 58 40 92 14
58 -50 -36 -8 -10 -2 -24 -22
24 -32 -44 28 38 62 28 -34

-40 -6 -16 -34 -20 -36 -44 52
-10 0 40 56 42 -10 -12 40
-38 -32 56 72 -60 44 -16 -14
32 16 42 60 10 24 -32 -2
8 -32 -98 54 36 2 100 130
34 22 -110 2 -24 -22 58 28
-16 20 -58 -86 -72 12 18 16
-22 -98 -86 -86 -12 -20 38 12

24 114 56 66 64 56 -32 92
130 92 104 124 82 38 40 -20
-6 -4 64 -4 -16 -32 -4 26
-20 -92 -26 -44 6 4 52 -30
4 -84 -58 -30 -80 -62 -20 30
-2 -30 -86 -86 -60 -70 -10 -80
52 -44 -18 -26 -12 24 70 88
-30 -106 -98 30 -12 32 50 -28

-18 -44 42 12 62 -10 -6 -62
-76 -130 -62 -42 -56 -28 -22 66
-100 -38 -62 2 42 -62 26 -140
-74 -18 -68 -34 -8 -2 34 112
-114 -18 24 -28 22 0 34 -92
-116 -76 20 80 -2 16 -28 66
-110 10 12 -24 -14 10 12 -106
-152 -40 -76 -36 -22 -58 -76 14

-58 -136 -86 -116 -90 -162 -98 -74
-24 58 110 54 76 44 30 82
16 102 82 -14 -38 18 -58 4
6 50 64 -74 -52 -86 -98 -56
-10 14 -56 -64 -38 -40 -82 -8
-36 -44 -88 -96 -74 -52 -96 -30
-118 -30 -24 -104 -154 -138 -136 -6
-28 80 8 72 -18 66 28 58

-140 -158 -140 -138 -84 -52 -72 -120
10 -56 -60 28 -38 6 -56 -116
26 -52 4 -16 -68 -44 -60 -22
72 -4 6 48 -74 4 -84 -106
24 44 18 14 56 6 -44 -46
30 18 10 58 20 -2 26 16
-40 24 2 14 -4 -44 6 56
2 62 2 -50 -24 -8 10 -76

20 38 40 18 32 24 52 24
-14 -32 28 12 -30 30 60 60
-54 -20 40 76 68 104 84 106
-44 12 70 160 202 136 84 34
-12 -12 6 58 72 50 36 14
26 10 -26 -62 -88 -86 -54 -4
12 28 -54 -78 8 56 66 32
46 14 62 -14 40 -36 -18 -32

66 12 54 16 -50 -26 2 -30
-4 50 6 22 100 72 82 -18
-12 -74 -22 10 70 46 86 16
22 -42 -84 -46 16 38 126 40
10 -34 -40 -12 -46 28 26 64
44 -48 -84 -72 -54 32 136 66
38 34 12 -8 62 174 92 54
68 20 -16 -76 62 62 80 38

232 10 288 22 288 8 192 -8
50 80 56 12 90 -18 -76 -24
102 -12 4 -40 -36 -56 -120 -78
-100 -88 -18 -100 -110 -96 -96 -98
4 -180 -114 -38 -52 -98 -116 -94
-162 -118 -186 -122 -180 -274 -226 -112
-8 -112 -90 -158 -220 -164 -86 -64
-98 -110 -94 22 -12 52 -18 76

88 6 40 -22 -28 -48 16 -124
66 88 48 24 -18 -30 100 -12
-46 20 -68 -76 -16 -16 116 6
-44 -20 -46 -88 22 12 56 10
-56 -28 2 -38 16 26 108 30
-62 -34 6 102 80 98 158 40
28 44 42 66 160 132 78 40
62 14 34 90 124 4 -18 -64

86 -32 154 -32 130 -66 102 38
28 14 -6 -66 -64 -60 -6 42
-8 -22 -74 -90 -86 -110 -82 8
-38 -70 -92 -138 -172 -186 -150 -52
-10 -30 -60 -92 -86 -32 -66 -44
-56 4 -24 -8 62 4 -16 -10
-34 14 -48 24 42 58 -52 58
-104 -140 -60 -108 -58 -126 -136 -46

26 4 -34 0 -54 -26 -46 -30
24 -14 -38 -10 32 -60 -70 -42
-8 -14 -98 -146 -50 -78 -38 -44
-78 -66 -120 -134 -156 -102 -62 -76
-138 -134 -84 -120 -106 -104 -14 -20
-108 -176 -112 -28 -98 -52 60 66
-94 -114 -64 40 54 74 84 30
-40 -92 -128 28 -22 42 -56 34

-36 -118 -72 -130 -156 -80 -76 8
-98 -156 -160 -120 -62 -82 -84 8
-30 -76 -60 -100 -52 0 -88 -22
-20 -40 -46 -88 -106 -64 -100 -70
-40 4 -34 6 -68 22 16 -58
-14 18 22 34 72 146 110 48
-32 -36 -66 -74 -4 -32 -110 -128
-2 6 -2 -66 -20 -112 -126 -88

26 32 -26 32 6 10 18 102
152 22 -10 -10 -16 -20 -14 54
-64 -58 -86 -58 -18 14 22 72
18 -38 -12 -38 -56 -38 50 40
-162 -110 -64 -60 -30 28 58 96
12 -112 -100 -96 -6 12 -56 90
-94 -34 -68 -44 -26 14 4 2
-12 -72 -60 8 30 22 -36 22

108 134 96 90 36 48 -8 -32
38 52 44 20 2 2 -8 0
-10 -68 4 -40 -12 100 20 26
-64 -20 -10 -12 50 52 28 66
8 -52 58 -14 56 78 -4 70
-14 -10 38 -38 -48 78 70 128
20 -8 30 38 68 124 118 8
2 46 6 46 100 100 98 76

20 38 68 38 16 -48 -112 -40
-2 -12 64 48 46 14 -116 -100
10 28 132 36 44 16 -40 2
24 -12 142 4 122 52 40 74
-56 20 154 94 112 82 48 54
-34 -2 70 82 172 150 30 0
-40 -76 26 50 24 -44 -82 -52
26 14 -6 -26 28 56 58 40

66 100 78 4 78 62 18 -30
64 10 -14 -50 -20 4 -50 -90
40 -26 -14 -42 6 18 -14 -32
42 -38 -4 42 24 6 30 32
90 -10 -12 -44 -6 16 22 24
44 -40 -24 -16 -70 12 12 42
-10 -98 -16 36 94 102 44 74
0 -12 48 120 82 18 -8 34

24 94 68 42 84 -52 -28 -48
14 -4 20 16 26 -46 -124 -104
-30 -80 -44 -16 -52 -88 -28 -82
-12 -68 -78 4 -2 44 124 30
52 -68 -70 22 24 -22 100 6
10 -38 -70 -34 -40 54 22 68
-48 -104 -18 42 12 56 94 60
-66 -94 -106 -30 -16 68 106 52

98 108 134 64 38 54 70 62
108 150 174 66 36 100 82 66
72 174 150 34 10 90 54 52
62 74 156 18 36 94 50 44
-10 -2 24 52 54 88 -22 40
-4 -8 24 32 -50 12 -20 18
18 2 24 16 -34 -50 -76 -18
132 64 140 52 54 -22 88 34

-6 -16 -18 -4 58 94 94 98
48 -50 -18 -6 -12 60 106 38
-20 -42 -38 -74 22 22 78 60
14 -106 -12 -54 -72 -10 66 28
-66 -82 32 48 50 -56 -2 4
28 -40 12 80 102 100 -20 10
-58 -98 12 24 70 -14 -108 -42
-12 -68 -120 44 -78 -14 -192 -58

48 -110 36 -106 80 -120 120 32
-158 -128 -52 -96 -106 -102 -64 64
-50 -68 -36 -68 -104 -96 -80 -30
-88 -104 -42 -68 -86 -124 -160 -6
-64 -32 50 -26 -12 -102 -108 -26
-34 -38 46 18 -24 -162 -90 28
32 -20 18 -26 -96 -40 -18 -36
-46 -22 46 -62 -44 -8 -54 0

-2 -28 -62 -12 2 26 18 -6
-12 -18 -42 -18 56 76 126 30
28 -42 -2 22 14 26 46 32
-26 74 -64 14 44 -34 -42 16
62 106 64 4 106 4 50 24
-8 60 20 -48 -10 44 64 82
118 126 88 -16 14 54 68 78
100 100 80 -12 50 78 144 106

-86 -68 -118 -60 -58 -34 -114 -130
-84 -74 -6 -10 -40 -68 -102 -74
-92 -150 -86 -90 -158 -106 -30 -76
-110 -154 -68 -134 -20 10 -14 -4
-74 -106 -16 -96 -106 -84 -102 -100
-52 -192 -76 -72 -134 -120 -96 -94
-82 -146 -84 -24 -66 -34 -36 -58
4 -80 -36 4 34 22 32 6

-30 -56 -18 16 -14 -38 -58 -102
-20 -38 -26 -94 -52 -88 -110 -66
-76 -134 -170 -106 -74 -102 -78 -52
-22 -146 -164 -78 -140 -130 -34 -76
-30 -118 -104 -100 -46 -132 -74 -20
36 -128 -200 -200 -114 -136 -104 2
34 -62 -136 -80 -26 -34 0 2
56 -92 -52 -32 -10 50 60 6

2 132 126 68 102 130 154 66
8 54 122 66 104 120 166 186
-68 42 70 58 106 62 30 60
10 -38 40 62 124 146 42 160
-38 2 60 44 98 96 94 52
12 -12 -4 -8 62 60 -8 86
-14 -58 -4 20 102 70 52 46
8 20 52 88 102 74 16 86

36 -30 92 -14 28 20 108 44
30 52 8 -4 38 26 68 28
2 -20 -56 -32 -84 -64 4 -2
-16 -84 -94 -44 -18 -36 -12 -50
-48 -76 -74 -86 44 18 48 10
-38 -54 -66 -50 -32 -50 -50 -12
24 28 54 54 -24 -44 26 -20
30 -18 26 -14 44 44 54 84

-82 -12 -26 -32 -94 -54 -150 -2
-68 -26 6 -90 -120 -52 -106 34
-148 -14 26 38 -34 -26 -102 -8
-94 -2 -48 -14 -80 -6 -22 0
-122 -110 -124 -68 -110 -24 -90 -72
-28 -84 -44 -40 -90 -36 -24 -14
-66 -22 -12 88 14 58 44 70
-60 0 20 24 -2 2 -20 -14

-36 -10 -80 -34 -76 76 68 112
-62 -72 -20 -64 -30 122 108 72
-42 -112 -40 -4 28 92 76 106
-40 -100 -26 24 14 -20 -80 -106
-44 -36 -70 -10 -32 -54 -80 -118
10 26 -34 -122 -124 -110 -146 -176
52 76 30 -70 -68 -60 -42 -80
50 46 50 -58 -40 -76 -46 -20

20 90 4 106 72 108 80 96
34 52 112 80 74 78 -72 -64
38 28 32 -32 -88 -84 -116 -38
-60 8 -18 -104 -98 -84 -44 -74
-68 -72 -26 -2 -56 -42 -80 -114
-42 -150 -146 -78 -104 -202 -274 -204
-16 -68 -70 -150 -316 -316 -246 -128
18 -58 -74 -54 -48 -4 30 32

54 -24 110 44 66 26 -2 -10
32 -2 58 70 100 148 90 -26
40 18 22 14 54 86 126 60
18 2 -40 -6 -44 -34 70 12
-6 18 96 92 78 20 122 96
-28 4 108 104 90 16 104 122
70 -6 0 76 78 70 160 162
52 0 -4 -20 30 62 84 62

-12 34 52 54 20 48 8 4
-6 -12 88 32 2 34 -36 -20
26 -8 68 144 84 68 -104 34
96 88 94 100 102 72 -16 62
164 180 190 102 144 78 44 134
222 254 234 94 64 66 106 104
180 244 214 142 164 120 210 168
94 150 118 134 52 80 146 120

-116 -202 -84 -142 -108 -204 -164 -84
-18 -48 -36 -72 -26 -54 -112 -96
22 28 8 20 52 -20 12 18
-4 0 6 8 -14 0 -8 -6
-20 0 62 18 0 6 -52 -26
-110 -130 -18 -66 -76 -18 30 56
-120 -176 -86 -66 -84 -48 -34 4
-66 -146 -86 -74 -12 -64 -70 -104

-102 -56 -182 -156 -154 -142 -142 -70
-76 -74 -150 -166 -104 -144 -62 -86
-76 -82 -102 10 -2 -54 14 24
-66 14 84 -22 -16 14 6 40
-62 -74 40 -28 18 4 58 72
-56 -88 -52 20 102 104 24 26
-62 -66 56 112 102 70 -60 -10
-20 24 20 16 -14 -38 -68 -66

-116 -94 -160 -90 -80 -48 -40 -12
-62 -24 16 40 10 54 44 68
-62 36 -16 52 8 96 92 -6
4 108 26 100 102 76 88 30
0 96 38 -38 -20 -26 -44 -98
-82 62 -26 -62 -16 -86 -50 -88
-48 12 18 -6 -44 -92 2 -36
-26 -10 22 2 -16 -56 -14 -40

46 -4 50 -4 30 -6 26 34
-80 -98 -22 -74 -40 -60 -130 -94
44 -18 118 -26 -34 -18 -82 -28
-30 -46 -24 78 32 58 2 36
66 14 -44 8 10 -64 -22 -116
80 136 24 -72 -38 -36 -44 -74
98 74 -12 -8 -70 -2 48 34
16 8 -16 8 42 50 108 90

-36 -22 -40 -86 4 20 16 -4
-114 -128 -112 -68 -34 -22 -28 -36
-90 -16 88 88 80 48 -24 -2
0 -36 86 140 122 24 64 62
8 -32 26 62 20 46 -32 -18
10 -6 50 38 44 74 -54 -16
-4 -36 54 46 -20 -4 -58 -32
-14 -42 30 30 -60 -64 -66 -8

-32 -50 64 26 4 0 -28 48
-6 20 36 56 -30 -14 -4 44
-62 -28 -28 -16 -52 4 28 110
-36 36 -18 20 22 56 20 138
-148 -8 2 54 28 -18 -16 78
-102 -22 34 122 16 38 10 84
-104 44 -10 6 0 12 58 132
-30 82 26 10 -32 -32 70 80

-100 -70 -132 -134 -176 -192 -92 -44
-46 -16 -16 -20 -58 -118 -32 16
-22 28 16 44 28 32 0 38
36 76 86 92 134 64 32 -26
80 136 106 82 88 14 -64 -86
38 150 70 -18 -32 54 -42 -76
116 132 58 -34 -64 -52 -34 -60
118 110 54 -46 -20 -20 -2 -48

-18 -44 -10 -44 -30 -62 -74 66
-20 -34 14 -14 -20 -76 -54 18
36 14 86 98 78 30 6 24
94 86 -20 118 108 102 106 52
98 110 56 52 54 92 82 28
56 140 100 60 106 112 100 2
110 78 88 108 94 46 48 18
100 128 104 52 70 -22 8 -2

0 -66 -68 -106 -128 -136 -52 8
-42 -56 -24 -92 -38 -42 -20 16
-130 -100 -56 -52 -16 -36 -64 -78
-60 -36 -82 -60 -2 -48 -96 -98
-32 -20 -90 -62 -8 -38 -32 -42
-46 10 -82 -62 -76 -50 62 -36
-24 -8 -34 -30 -4 96 38 -36
22 -26 14 34 32 16 18 -16

30 -48 -10 -28 -34 -138 -50 -86
-24 -50 -62 -70 -68 -104 -38 74
-48 -26 -54 -34 98 78 90 100
-34 62 52 78 96 98 34 32
22 14 20 72 106 116 94 32
20 24 4 -52 6 28 116 14
18 106 16 -28 -26 -2 4 -34
-36 64 8 -32 -46 -10 8 10

-16 46 16 38 48 -48 -16 44
-10 108 92 144 134 166 104 56
-22 120 160 132 104 180 112 90
36 124 134 144 162 192 116 98
-40 132 134 162 184 126 -8 146
-2 190 290 174 104 58 46 140
-24 224 278 210 4 56 154 184
-34 222 150 154 -44 96 50 104

-132 -58 -60 -110 -76 -28 -80 -76
-126 -176 -108 -64 -66 -78 -108 -16
-170 -152 -120 -100 -116 -72 -40 -98
-128 -200 -214 -92 -74 -28 -48 30
-152 -112 -134 -98 -104 -50 -84 -78
-30 -114 -70 -102 -48 -18 -38 40
-116 -160 -58 -14 -56 -40 -66 -100
-74 -146 -122 -82 -140 -92 -62 -40

-106 -88 -90 -120 -66 -110 -106 -66
-92 -114 -110 -146 -156 -104 -98 -62
-76 -142 -158 -114 -230 -258 -210 -120
-90 -54 -120 -78 -96 -238 -174 -152
-22 -42 -108 -68 -118 -92 -106 -92
28 -12 -76 -8 -42 -4 -32 -74
6 -70 -112 -104 -74 -42 -20 -82
-12 -96 -112 -96 -46 -94 -76 -122

-12 10 44 10 64 12 52 0
70 -60 -80 -100 6 -70 -120 -44
-2 -68 -44 -124 -64 -40 -156 30
92 -84 -66 -48 -54 -48 -100 38
32 -12 -62 -78 -40 -38 -24 18
90 -54 -46 -114 -56 -58 -122 -76
-36 -124 -86 -110 -68 -148 -82 -64
-82 -122 -146 -130 -100 -120 -110 -56

26 120 134 196 230 234 218 178
68 134 174 142 140 176 110 70
8 6 -2 66 -30 42 -22 -4
10 -30 -72 -14 -12 10 38 52
-14 -78 -20 -12 -34 20 -38 16
-72 -44 -16 -44 -46 8 -40 -18
-58 26 48 68 54 46 100 66
-112 -52 36 44 34 26 20 -2

-38 -44 -82 -92 -46 -30 18 -118
-4 10 -2 10 32 36 66 38
68 38 62 22 46 -14 58 36
134 42 28 -46 24 -74 -30 -8
62 -2 0 -8 34 -60 -34 -44
44 -40 -64 -60 -62 -48 -36 22
62 10 -100 -140 -26 6 24 34
92 84 -24 -52 46 -2 16 -34

