77 127 77 127 77 109 33 73
127 85 73 97 -17 31 37 37
59 37 101 61 25 97 117 139
33 -55 7 -103 19 97 145 127
-19 -99 -25 -33 -55 55 25 75
-29 -117 -49 -49 33 47 15 61
-39 -95 -117 -25 -23 -67 -81 -35
-69 -49 -85 -37 -91 -43 -109 -39

-2 -108 -14 -40 26 -10 10 -154
-32 -2 6 30 100 112 -6 -30
-28 -10 6 10 54 78 50 -16
-22 -30 68 58 16 -22 -2 0
2 -22 -28 -20 -26 -48 -38 -64
-116 -76 8 -48 -86 -64 -148 -110
-38 -46 -12 16 -42 -10 -16 -78
-4 16 36 80 -6 -10 -44 -34

22 -84 -106 -108 -102 -66 -90 -130
68 -58 -154 -66 -52 -100 -102 -134
60 30 -34 -26 -34 -54 -10 -60
-14 66 -4 -2 0 -14 22 -4
6 50 28 -28 22 56 82 20
-24 84 24 -40 6 36 36 -70
-42 10 -60 -88 -38 -22 8 -14
-32 40 4 12 42 18 28 -6

-29 -35 -9 21 11 75 79 23
1 7 15 19 65 65 43 11
105 19 11 83 55 27 7 -11
63 83 81 63 65 103 31 -27
-9 47 33 45 11 57 87 -67
73 57 41 81 55 21 -35 -85
11 63 93 41 -61 -77 -107 -61
57 73 77 61 -21 3 89 55

39 89 71 53 39 87 15 15
29 19 11 7 -67 -15 -69 23
9 -25 -49 -37 -105 -69 -93 -23
-33 -85 -59 -33 -51 -21 -73 -27
31 -41 25 -31 -37 -11 7 25
53 -35 21 -31 -21 5 89 79
91 27 -19 21 83 155 181 31
61 21 -11 -11 59 123 61 -9

-68 -46 -60 66 40 76 -8 -4
-38 -44 -56 -36 10 -22 -72 -52
14 -8 -48 -88 -128 -76 -64 -50
-56 -68 -110 -20 -66 -72 -64 -74
-28 -60 -50 30 -24 -30 -72 -78
-70 -82 -66 -74 -104 -86 -34 -88
-48 -92 -126 -118 -120 -28 6 -80
-82 -102 -158 -94 -36 -84 -30 -48

54 24 10 76 -6 46 58 34
36 -14 -34 -10 48 -16 26 -114
60 10 -74 -18 -2 -54 -18 -20
18 -50 -80 10 -84 -102 -18 -76
114 26 0 -28 -70 -124 -46 20
108 20 44 40 -10 -44 24 -6
106 14 76 44 46 18 20 58
56 -52 -60 -64 -102 -58 -24 -18

-50 -44 -58 -20 -26 -38 -86 -10
-12 -30 -66 -62 -164 -116 -142 -26
-52 -62 -94 -82 -130 -110 -110 -12
34 -22 -48 -38 -4 -14 -66 -20
-6 34 60 4 -22 -36 -86 -4
92 84 60 28 14 64 24 -18
-2 10 -16 -4 -30 -126 -164 -86
-88 -40 -32 -68 -82 -158 -124 -90

-24 42 -44 -2 -20 -28 0 -4
94 56 -56 12 -42 -50 64 -32
66 108 -92 -56 -88 -44 88 6
52 76 -30 -104 -90 -12 44 -86
-68 56 -14 -78 -52 14 -44 -46
-18 -42 -14 -62 -72 -82 -30 12
-12 12 -66 -62 -56 -44 46 48
10 26 -74 -18 48 56 18 8

-14 -28 6 32 30 -26 -34 74
-52 14 -10 6 -20 36 -34 38
-40 -10 -42 -6 -22 -18 -10 4
-66 -42 -68 -54 -52 -82 -114 -32
-114 -74 -80 -44 -54 -64 -74 -72
-108 -120 -44 -136 -178 -124 -8 -42
-74 -126 -80 -176 -146 2 8 -58
-104 -88 -60 -4 -2 86 16 2

11 -19 -57 -43 31 47 47 -21
41 43 27 83 1 29 7 -37
101 67 115 147 67 35 -1 9
27 67 133 159 129 143 95 57
27 87 105 133 119 105 -9 45
77 117 101 93 43 21 41 55
75 23 41 145 -5 -17 -11 11
-7 13 25 5 -33 -9 -19 39

29 -29 81 -33 65 -11 1 -95
131 -19 49 29 31 103 29 -219
99 -11 -79 -47 65 25 21 19
105 69 -17 -23 71 57 53 -89
105 73 115 63 -59 -61 49 83
27 3 19 31 -27 -17 3 -95
41 -7 -45 -85 29 1 47 13
67 -53 -73 -37 9 -3 -33 -91

116 58 40 -10 -24 4 12 84
150 96 80 -32 -62 58 -28 52
102 72 60 -60 28 76 -36 86
96 76 26 -52 -22 116 48 22
148 68 26 26 -56 14 52 62
174 90 122 78 48 62 18 28
116 80 78 2 20 -4 -10 56
146 126 -30 22 12 56 54 60

61 -77 -79 -37 -71 -67 1 -3
47 -31 -27 -103 -145 -149 -95 -155
159 77 69 25 5 -119 -87 -21
141 105 115 73 55 -15 -55 -193
165 93 43 107 133 51 -15 -17
135 135 59 47 85 -17 -5 -115
161 105 31 19 -3 -23 -37 1
83 99 27 19 21 17 3 -11

-79 -9 -115 27 -71 57 -35 81
-17 41 5 17 39 15 -31 89
-97 -11 29 -11 9 -19 -11 3
-47 25 51 57 11 45 5 -29
-95 9 15 55 65 51 17 51
-5 -17 59 39 129 23 -33 -39
-71 -35 31 99 81 9 -41 -83
-57 15 23 111 17 -7 -45 -39

2 24 -10 -28 -10 -22 54 -34
20 -50 -22 -90 -160 -176 -22 -22
48 18 10 6 -38 -122 -10 12
78 -14 32 62 44 -2 -14 0
2 14 36 36 2 24 10 0
84 -56 -16 4 18 24 120 26
-2 -42 -32 44 66 46 44 14
76 -8 -12 32 78 26 32 10

-49 -87 -65 -83 -69 -49 -101 -9
-23 -49 -21 23 -11 -7 -57 -41
105 83 107 55 23 55 43 17
67 111 85 115 101 23 -21 -3
103 127 113 97 95 57 -1 -31
141 149 137 49 47 -7 -83 -45
75 111 57 -7 -33 -73 -51 -1
97 109 121 121 59 71 65 59

-3 -29 -31 11 -43 -19 -43 -7
111 73 9 -23 11 -17 -71 -63
47 61 13 45 -47 -3 -75 -9
57 29 51 33 19 -43 -99 -81
13 9 51 47 85 15 -19 -17
19 -25 51 43 9 11 -21 -23
5 -11 35 39 -19 -23 -41 -7
-9 -57 -21 -1 -75 -7 -25 17

-12 6 -36 -34 -80 -64 -8 84
-98 -52 -84 -32 -102 -66 -36 40
-114 4 8 -20 20 56 -40 6
-108 28 46 -28 30 48 -40 102
-72 64 46 -6 104 26 28 122
-22 50 30 70 52 122 138 116
52 56 70 78 88 152 86 68
-18 90 54 58 108 44 6 28

-45 1 19 41 47 -13 43 35
-15 11 15 47 21 -27 3 -13
-39 -45 -25 3 -33 -37 -29 -7
-25 -113 -51 -5 21 -37 3 25
-89 -77 -75 13 -29 5 7 37
1 -55 -51 -7 43 29 57 95
11 7 21 -11 -29 31 65 75
-7 -11 -19 -79 -77 35 49 75

30 0 -10 -8 -2 34 50 62
-28 30 122 86 104 132 118 42
100 106 182 142 170 158 30 84
-10 54 156 110 180 126 38 48
26 46 104 92 94 108 42 16
-64 12 120 64 34 52 0 -6
50 22 124 -16 6 2 -48 -74
-16 48 108 132 -18 74 -76 -6

-77 -167 -121 -235 -169 -261 -149 -177
-95 -141 -205 -201 -251 -167 -141 -69
-23 -61 -97 -45 15 27 7 -63
19 -5 -43 51 97 51 19 13
79 167 49 21 -33 49 119 -7
93 137 125 65 67 125 161 131
-1 51 61 57 127 -1 37 -1
137 101 165 81 87 -37 -19 -49

-58 -88 -94 -28 -46 6 -26 -6
24 106 50 134 88 136 78 66
40 130 90 102 22 18 22 52
14 98 56 34 72 -14 54 16
-54 42 76 116 66 56 -14 -48
40 4 16 -12 -66 -12 4 -10
18 -30 -72 -116 -174 -122 -92 -130
24 24 28 -80 -14 10 60 22

7 101 43 85 55 27 7 -41
-67 47 7 11 33 9 3 11
-107 -1 -29 -45 -1 -17 -17 -87
-73 -13 -15 -17 -27 -61 55 -15
-37 -5 -7 -39 -9 -63 7 5
-51 -31 57 -15 -1 37 61 -5
-37 -5 13 -59 15 -13 9 -73
9 -3 1 -3 -53 -5 -11 -41

7 -39 -25 -11 27 39 43 -53
25 -77 -89 27 81 97 59 -21
-31 -29 -81 3 47 55 107 -79
-53 -37 -71 -81 -123 -61 -9 -111
19 -65 -111 -147 -117 -71 -65 -51
-35 -91 -63 -43 -41 -79 9 43
7 -37 -23 41 -9 83 161 131
-87 -75 -115 13 -53 27 -59 35

36 42 48 50 -16 4 24 136
50 -68 -52 -44 -50 -70 -44 32
34 20 20 -12 68 56 20 74
148 120 62 24 118 44 4 62
176 200 146 26 56 30 32 46
206 174 94 -34 12 46 30 96
152 156 74 38 96 52 62 112
182 170 142 22 80 88 154 64

20 82 72 102 8 52 8 124
26 92 108 72 86 -18 -28 0
74 84 60 24 64 -8 12 6
-4 40 50 68 90 68 88 2
8 24 -6 14 84 102 36 -54
18 82 -42 -74 40 34 2 -40
68 60 38 -78 -128 -132 -66 -44
62 46 30 -46 -24 44 162 116

-34 -56 14 4 34 -62 -38 -34
48 30 42 2 -12 0 -10 6
16 -2 -6 -2 14 50 -10 48
50 -14 -64 -62 -8 10 106 72
38 -22 -60 -64 -90 -96 58 76
24 48 56 44 42 104 148 162
-6 2 28 108 110 102 120 158
-40 20 -60 52 -38 66 -20 30

86 116 106 184 114 166 122 114
80 54 50 114 104 160 122 42
8 -14 62 50 70 90 142 8
-18 -14 32 38 -4 38 162 -8
10 -10 -28 48 70 44 46 -8
-8 20 20 20 50 -8 -96 -26
10 78 92 72 58 -66 -16 22
-8 56 64 84 -14 34 60 46

4 -6 -8 82 48 24 0 56
90 -8 -44 20 62 74 48 40
18 12 48 52 12 4 -48 54
72 64 102 -16 -22 -44 -20 46
-32 32 130 122 -20 10 12 46
58 50 114 126 88 94 10 96
-36 32 38 70 76 68 -26 32
78 -38 26 -14 24 48 26 32

22 -44 -10 -4 50 50 -54 -54
36 -86 -6 6 120 132 -22 -178
96 -50 30 54 -14 30 74 -44
94 -18 -28 -22 -20 -22 42 -88
42 -34 28 4 34 4 -10 0
-12 -48 44 16 42 40 12 -70
14 -106 -36 40 46 -38 -40 -22
44 -64 -88 8 -46 -106 -84 -70

43 9 27 25 27 -41 -25 -89
17 7 -25 -37 13 -71 -65 -37
97 -9 -1 3 7 -33 -73 -39
-9 15 -19 -41 41 15 -1 -91
19 -57 -159 -147 -113 -111 -53 -123
-3 -63 -171 -183 -121 1 -43 -101
3 -85 -151 -67 -21 -109 -43 19
-43 -7 -63 -15 -33 3 5 3

-28 -2 -44 -14 -8 -4 100 -20
110 120 84 76 122 66 140 60
30 60 24 -24 32 -20 -20 42
8 -56 -34 -128 -54 -128 40 14
-60 -148 -62 -126 -72 -70 56 58
38 -66 -46 -70 48 42 42 44
-12 -84 -50 -10 20 20 58 68
-78 -50 -62 -58 -36 -52 -42 -52

104 54 160 82 120 28 28 -36
94 0 40 20 -22 38 -36 -92
110 -60 4 -52 -64 -28 -136 -22
44 -48 -70 -36 -26 44 -20 -22
104 24 -26 -106 40 -6 -8 42
2 18 10 14 68 90 -22 -40
40 20 22 26 56 88 70 20
-10 -6 -106 -26 12 52 -66 20

29 47 17 -13 45 -47 -15 -11
23 -11 -11 -7 63 -1 -47 -67
47 41 49 69 157 73 37 23
65 149 99 -23 67 5 25 35
57 145 155 23 17 7 61 -1
39 107 155 131 45 115 55 -7
-19 45 87 55 105 105 7 21
-61 -25 39 3 25 9 -57 -51

-34 64 42 -40 -10 46 18 22
-20 -2 2 -66 -20 20 22 58
-72 -102 46 -34 -46 22 -22 16
-18 -102 36 86 48 38 -6 124
-6 -98 16 96 -14 12 62 40
20 -52 16 -36 -42 44 24 -22
-26 -54 -44 -64 -46 -38 -48 -54
20 -4 -28 -16 -2 10 48 -34

90 -108 14 -96 26 -102 -6 -138
-24 22 -26 -14 -48 -40 -22 -86
80 -78 -86 -90 -42 -10 -10 -64
74 -38 -60 -22 -16 10 6 4
78 22 -12 -80 -42 -36 -2 56
24 28 40 -24 -82 -56 -20 62
62 -54 36 -28 -58 -66 -80 -14
60 28 -16 -52 -86 -42 8 22

-66 -104 -14 -108 -30 -82 -50 -90
0 -42 -18 -46 -56 -84 -66 -22
56 -2 2 -46 62 30 -18 28
86 14 16 -6 76 90 62 44
86 78 40 -12 42 8 42 -16
40 76 56 16 46 -56 -120 -98
58 -6 32 36 26 -98 -104 -18
32 40 12 -16 -10 -22 -68 6

-1 -55 -13 21 -29 -89 -117 3
-51 -53 -17 -13 -11 5 -49 -45
-7 -21 -41 19 15 11 35 13
19 3 -31 31 1 -29 7 -7
-21 91 33 37 3 -91 -9 85
-59 -23 89 1 -25 -7 37 39
-9 111 45 -31 -9 51 69 31
5 9 57 9 27 71 -7 19

-40 -58 -56 26 16 64 -20 -12
-14 -20 -60 -28 -46 -10 -16 -8
-38 -80 -148 -128 -52 -28 60 10
-60 -64 -94 -96 -18 20 52 30
-36 -44 10 -6 4 46 52 66
-38 -106 -62 -38 76 -22 18 16
24 -52 -42 -6 20 48 58 4
14 -38 6 6 80 80 94 12

101 7 105 -25 21 -67 81 89
31 49 85 -11 67 -25 -7 41
59 61 69 -51 9 -15 -31 55
69 -11 99 53 -5 -31 -59 -13
21 -35 -21 -37 -7 75 25 59
3 -49 -105 -25 -47 -41 -93 -7
-15 -59 -17 -97 -91 -75 -113 -31
-69 -61 -41 7 25 -39 -29 33

40 54 60 -2 24 12 36 96
-18 -28 -60 -56 -54 -62 -112 -8
34 44 8 -40 -32 -64 -72 -106
-16 20 -6 -52 -14 -72 -96 -26
-24 -8 -18 -86 -48 -98 -76 -10
-6 90 98 102 44 62 70 104
-12 68 118 42 72 24 46 60
14 62 74 -18 72 44 86 32

43 105 87 25 39 39 35 11
29 95 63 79 33 1 -5 -13
13 67 107 43 -9 71 11 -23
39 47 13 19 -27 -13 -45 -31
79 99 49 -7 -33 -47 -57 -19
29 73 33 -23 -133 -91 13 51
79 87 45 17 -13 47 77 27
121 -59 137 -43 139 -65 133 -73

47 81 119 141 127 95 31 -25
89 167 223 215 173 125 67 7
93 159 111 103 47 59 47 5
83 163 185 131 149 91 7 61
-17 115 197 181 71 45 75 105
-19 -3 41 129 91 33 41 19
15 23 -11 13 -5 39 45 15
-27 -15 13 37 75 67 81 43

-86 16 -42 -8 -70 -38 -30 -86
28 90 130 90 112 132 86 26
20 70 158 134 154 122 102 16
74 70 104 30 68 70 46 28
46 70 40 -32 38 36 54 52
32 24 24 -28 -58 -4 -12 -46
46 130 40 -52 -66 -62 -88 -26
80 132 100 -12 -98 -46 16 -38

-50 -104 -134 -100 -42 -10 38 78
-4 -34 -94 -54 20 -20 114 138
-56 18 14 14 -42 -66 14 120
-30 14 20 -10 -76 -50 42 -12
-66 -38 -20 -16 -74 -8 18 -24
-52 -72 36 -24 2 -24 -44 -30
2 34 0 4 -38 -66 -72 -14
-28 -28 32 32 -42 -30 -56 -18

-44 -10 32 2 -8 24 12 12
38 84 36 76 26 -10 52 72
90 140 164 108 68 16 72 50
108 84 202 176 90 60 32 -14
96 104 78 114 44 -6 -20 -126
82 78 30 18 -44 -62 -126 -128
92 52 6 -46 -104 -144 -122 -88
90 22 -30 -110 -92 -124 -90 -60

16 34 56 58 28 72 12 4
122 28 52 40 -34 -6 -12 -68
114 144 40 44 56 20 44 62
56 116 98 16 58 16 104 50
0 80 174 138 84 102 116 98
42 6 14 46 92 50 -30 -32
-4 -20 -70 42 108 76 -38 -24
-34 -14 2 42 76 -24 -106 -76

67 -7 -21 -39 27 -1 -45 -21
21 -9 3 -9 21 -3 -81 -49
53 23 107 47 -25 71 -89 -83
-9 -5 65 -1 -67 19 -69 -103
15 39 65 9 59 37 -9 -47
-27 45 89 37 -13 41 1 -69
35 27 73 -7 -57 15 -39 -65
13 9 17 -43 -9 11 13 79

21 83 61 91 -3 41 -23 69
-33 5 33 33 35 -9 13 -75
55 53 105 153 125 121 181 15
65 117 139 105 155 121 101 91
25 61 71 27 29 -21 37 91
47 19 103 -29 -87 -77 -77 -75
33 -3 -49 -109 -147 -27 -1 -31
67 -13 -21 -101 -15 -3 3 -19

-13 -55 -57 -43 -41 -57 -21 -9
-63 -121 -129 -73 -95 -55 -9 15
-31 -53 -121 -97 -109 -29 15 37
-49 -61 -95 -97 -95 -97 -1 1
-89 -33 1 -3 15 73 87 41
-107 -51 -19 105 135 201 109 51
-105 -113 -91 -39 39 7 -135 -53
-43 13 -11 -71 -29 -41 -43 -17

-76 -162 -120 -82 -60 -96 -80 20
98 104 112 104 34 54 40 28
-34 16 40 76 52 108 0 122
152 76 38 20 70 40 8 -54
12 88 118 70 28 -42 20 78
174 130 126 122 100 114 122 36
60 104 42 22 84 92 46 120
118 42 6 10 28 -84 -58 -108

-23 -65 -119 -29 -95 -35 -31 -31
-21 -119 -139 -47 -97 -69 -39 -23
-21 -11 -23 25 21 -31 29 -37
-79 5 -53 -23 -9 17 77 -57
-47 -31 -93 -57 25 7 -35 -69
-85 -69 -141 -1 -67 -89 -57 9
-75 -11 -49 -37 -143 -147 -85 -27
-17 31 -21 7 -51 -11 15 85

16 -98 8 -110 64 -64 32 4
-14 -88 0 -88 -70 38 -36 60
-42 -16 -16 -64 -80 12 -16 34
-36 -60 -62 -68 -58 -8 -4 54
12 12 54 -14 36 50 68 78
22 -18 -42 30 52 58 70 48
-24 -60 2 58 12 64 98 24
-50 -110 2 42 32 48 6 20

-23 43 17 51 13 57 57 81
27 65 89 137 115 107 69 73
63 157 153 93 145 85 21 87
81 117 119 97 195 113 41 91
101 181 123 127 157 59 109 119
143 235 203 159 149 175 87 77
157 265 331 179 181 125 163 77
23 79 159 111 13 -31 -13 5

-54 16 -38 96 54 98 18 -22
20 18 98 46 68 60 90 -30
68 98 42 38 82 42 26 -12
46 42 36 34 56 14 22 -112
74 86 40 96 86 24 42 -60
28 60 132 32 -58 -132 -72 -82
22 38 0 -16 -58 -66 -36 -18
-40 -60 16 4 34 -22 64 -22

8 6 -20 6 -60 -56 -36 96
-34 -64 -156 -164 -62 -74 -80 -12
-70 -68 -72 -44 0 -44 -48 54
-4 -8 -14 -20 -18 -36 4 2
48 -16 -82 -42 -12 10 0 -30
66 -26 -26 -146 -16 -62 -118 -108
84 -44 -54 -94 -20 4 2 -16
94 2 10 10 60 -16 26 -64

-48 -58 -32 -82 -60 -56 -64 68
-58 -4 -60 -60 -10 -82 -48 176
-126 36 -80 -112 -56 -104 -12 154
-60 -20 6 -20 -82 -12 -28 22
-168 -40 -46 -34 -24 -14 -16 26
-74 -18 -10 -14 40 -70 6 40
-172 -40 90 30 -152 -156 -110 12
-58 -42 78 -82 -60 -64 46 28

6 -28 -6 -72 -50 22 -14 -10
-92 -62 -50 -66 -56 4 -26 6
-28 -86 -54 -78 -66 -74 -78 -8
-42 -58 24 -10 -92 -30 -138 -28
2 -14 16 48 10 -56 -82 24
-8 -44 -24 52 86 -16 8 -26
2 -38 -32 32 22 -26 8 14
-8 4 48 24 -62 -6 -24 50

25 51 77 79 97 97 45 -3
27 33 17 37 47 3 -43 -71
39 57 45 9 13 13 81 71
33 61 59 29 31 -55 57 15
-39 13 -9 51 -19 -49 -11 63
-45 -33 -21 -1 -71 -29 -61 -39
-35 -71 3 -1 -47 -27 27 41
79 -45 67 -53 97 -43 115 -23

-15 7 -75 -61 -127 -3 -11 -43
-9 -3 -51 -35 -9 15 77 81
-5 -23 -11 -39 9 -71 -3 7
-39 -11 -41 -55 -57 -55 -19 75
-71 -39 7 -25 -47 -73 -27 -33
-89 -89 -45 -73 -35 31 -17 -19
-91 -123 -41 -29 33 77 -37 -99
-57 -61 35 31 33 -7 -49 -79

-14 -76 -62 -16 -66 -14 26 58
-80 -94 -106 -2 8 8 98 54
-20 -42 -50 62 154 42 74 12
-6 -26 -32 -34 8 50 94 -56
42 -18 -40 -64 -10 -80 -86 -60
-4 48 36 -24 -10 -8 4 -82
2 -58 -8 -48 -30 26 64 2
-28 -76 0 8 6 -38 -16 -18

-6 104 106 68 34 70 66 62
-4 -6 54 22 -28 0 -46 18
-56 38 122 106 6 -14 -38 -4
26 -46 40 54 16 -42 10 40
-30 22 -44 12 34 44 118 28
68 40 0 80 90 4 40 -38
54 -22 -32 36 62 14 -16 -98
-8 -28 -52 8 -26 -50 -120 -102

-80 22 72 70 44 44 -16 -16
94 36 80 28 50 2 -100 0
-110 32 16 48 4 112 20 -22
44 -16 30 52 78 76 116 14
-144 -20 2 30 -24 58 68 18
54 -94 -38 -38 -48 2 34 8
-232 -36 42 94 40 16 34 -12
-30 -66 22 38 36 -24 14 20

10 -4 70 56 22 14 22 -122
60 14 -6 46 108 68 74 -110
72 -2 26 122 122 102 86 -56
58 -18 24 14 24 -2 -50 -124
42 -38 4 20 50 32 -54 -60
8 -12 0 4 -78 -52 12 -10
18 -42 -124 -96 -46 -26 44 14
52 -24 40 -56 10 46 48 26

41 -17 61 27 37 41 77 29
63 -15 61 -11 11 111 121 69
107 93 45 33 77 101 129 95
93 49 63 53 87 1 13 43
41 -3 -5 11 1 -69 -103 -53
-5 -57 -53 -21 -63 -117 -61 -67
9 -15 -113 -105 -35 -31 -5 -11
35 7 -93 -45 -55 -19 -169 -47

11 -59 115 45 11 59 59 -5
-3 -9 43 51 29 81 19 39
13 11 -33 67 47 87 -21 -55
-13 -61 -83 -29 -19 -9 -81 -19
23 -49 -75 -11 -41 -99 -45 13
5 25 -19 17 7 25 77 171
23 87 17 61 71 135 197 127
-31 -7 13 45 27 15 -19 -21

-22 -28 -58 -48 -26 -2 30 -94
-4 6 -54 -18 -92 -64 -14 -78
40 14 2 14 6 -18 58 -76
18 38 -48 -18 -12 38 70 -36
90 46 -64 -44 -2 8 -58 -76
36 48 -32 -76 -34 -20 -20 -10
90 46 -4 -48 -54 26 12 -14
72 56 4 -4 -30 34 32 -6

37 123 33 47 -31 77 -3 1
27 9 -3 -27 -73 -49 -71 -91
79 49 -23 65 45 65 53 -45
21 105 3 -3 55 125 145 15
81 69 -33 -57 -19 71 93 -1
-45 19 -65 -13 45 71 79 29
-27 41 3 47 89 85 39 25
-69 19 -1 7 17 -55 3 -27

-57 -99 -17 -71 -13 47 3 -1
-47 -45 23 63 73 145 79 47
53 87 151 187 123 127 95 49
71 107 177 151 81 107 35 13
91 135 117 65 91 129 47 37
37 105 133 193 203 89 45 19
7 43 37 105 87 -69 -39 -45
-51 -23 29 -11 -141 -109 -119 -85

-4 -34 36 26 44 -24 64 8
-22 -4 32 68 -22 -10 72 8
46 52 0 -52 36 40 52 -10
-16 -4 -34 -84 18 40 -92 -162
-20 -16 -34 -46 28 -14 -136 -114
-62 -50 18 38 -76 -130 -90 -40
12 88 70 -34 -108 -160 -46 24
34 70 34 -66 -76 -36 38 12

26 12 10 -52 26 -38 -10 -70
4 90 82 10 88 116 18 102
-16 90 118 50 2 42 38 8
-26 26 92 38 32 10 26 112
58 -42 8 -16 -86 -16 -30 -52
-20 -4 -24 52 -46 0 8 50
14 18 8 100 78 30 92 -22
-4 92 76 112 62 54 76 70

59 105 91 81 43 43 63 95
-123 -13 -1 -17 -19 -3 15 -9
45 47 107 79 79 87 11 1
-41 -33 49 51 57 67 35 73
111 47 33 49 31 21 47 -31
-11 61 41 73 67 49 33 -9
103 67 105 125 71 15 73 -61
5 73 97 -7 47 -17 13 15

45 -1 1 -29 9 41 45 -35
-33 -15 -35 -11 47 15 17 -55
-17 9 -63 -55 5 -3 49 -1
-15 -27 -81 -47 -29 9 -43 -25
-43 -31 67 31 -3 19 21 11
-125 -89 -25 19 -3 -9 27 77
-59 -79 -49 -17 -11 -115 -105 -75
-81 -65 3 -65 -75 -83 -5 -51

-1 9 -1 -35 -65 -17 43 -57
21 83 63 7 -43 25 71 67
21 19 -5 -49 -65 11 59 37
-37 -73 -115 -81 33 23 -53 29
3 7 -75 -35 11 -15 11 -3
5 13 -39 -27 27 49 85 71
63 39 25 45 75 103 133 -5
61 65 21 45 99 123 81 -45

6 4 22 24 42 26 18 -26
64 46 58 10 -20 -56 -2 22
4 -54 -18 2 30 -54 -42 40
-22 -2 -48 2 56 18 -2 44
-14 38 -36 -48 6 0 18 -12
0 12 -8 -60 -30 32 84 102
42 86 -12 -24 62 134 196 102
-32 -20 -76 -48 -26 22 -36 -62

-14 16 26 -12 14 -66 22 94
-20 -10 -58 -114 -44 -84 -22 -66
-40 -66 -70 -70 -62 -82 -34 56
-10 -42 -100 -50 -80 -90 -58 -100
-22 -34 -68 -100 -114 -72 -74 40
-16 -4 -36 -56 -102 -64 -40 -46
-6 50 -12 -8 -22 34 -4 146
4 -64 24 0 34 -58 -12 -38

13 35 33 83 -27 5 -15 93
27 -7 -35 5 51 63 -15 -63
75 117 89 93 85 85 -43 15
29 53 39 57 31 -43 -23 -73
57 45 55 23 1 -1 -11 35
11 67 87 19 29 43 39 -7
5 25 -9 -13 17 49 -1 29
-29 -61 -1 -1 37 -39 -33 -31

-83 -97 -59 -89 -59 -79 -55 -47
-29 -27 -23 89 51 51 -79 -23
23 41 53 61 65 53 -71 -21
29 109 23 -31 31 25 -3 23
-23 53 63 79 85 79 21 3
-73 39 27 75 133 71 19 -27
-95 -23 11 11 -19 -71 -181 -131
-85 -45 -9 -129 -111 -103 -101 -63

-12 -10 -28 18 20 68 68 88
-14 -20 52 60 114 66 104 88
-14 -8 56 -16 -28 -12 -12 58
0 4 -38 -12 -6 -76 -88 6
-8 12 50 62 4 -46 -28 -2
26 62 58 58 20 -94 38 16
52 100 86 86 20 84 98 88
38 54 58 58 60 40 14 4

-7 35 37 35 13 1 57 25
51 169 137 65 11 -53 5 1
63 169 137 97 49 -15 57 51
-31 77 139 145 127 105 41 -29
-19 73 159 99 109 23 1 -93
79 67 127 -29 -111 -109 -93 -123
65 81 71 3 -39 -39 23 49
-13 79 19 -37 77 33 55 13

68 94 88 10 20 -16 64 -96
50 8 44 8 10 -6 -28 -72
62 28 -16 12 -4 0 -32 -66
-8 40 22 -44 -14 4 68 -6
-8 -28 6 -46 12 26 44 -62
6 -58 2 -54 28 10 62 -16
28 -80 -66 -38 -40 -32 -54 -52
-6 -62 -74 -2 8 32 -2 -64

-55 -21 -31 -49 -35 -51 -59 37
-25 -15 25 41 27 -25 -27 25
-53 -47 41 57 -75 29 -31 -29
17 1 27 45 -5 9 -47 -17
-7 -47 -113 39 21 -13 85 115
19 7 -125 -13 -39 -37 43 13
-31 5 -73 -101 -87 -3 3 1
-37 -113 -101 -101 -27 -35 23 -3

-6 84 26 36 34 26 -62 62
100 62 74 94 52 8 10 -50
-36 -34 34 -34 -46 -62 -34 -4
-50 -122 -56 -74 -24 -26 22 -60
-26 -114 -88 -60 -110 -92 -50 0
-32 -60 -116 -116 -90 -100 -40 -110
22 -74 -48 -56 -42 -6 40 58
-60 -136 -128 0 -42 2 20 -58

-17 -43 43 13 63 -9 -5 -61
-75 -129 -61 -41 -55 -27 -21 67
-99 -37 -61 3 43 -61 27 -139
-73 -17 -67 -33 -7 -1 35 113
-113 -17 25 -27 23 1 35 -91
-115 -75 21 81 -1 17 -27 67
-109 11 13 -23 -13 11 13 -105
-151 -39 -75 -35 -21 -57 -75 15

-39 -117 -67 -97 -71 -143 -79 -55
-5 77 129 73 95 63 49 101
35 121 101 5 -19 37 -39 23
25 69 83 -55 -33 -67 -79 -37
9 33 -37 -45 -19 -21 -63 11
-17 -25 -69 -77 -55 -33 -77 -11
-99 -11 -5 -85 -135 -119 -117 13
-9 99 27 91 1 85 47 77

-114 -132 -114 -112 -58 -26 -46 -94
36 -30 -34 54 -12 32 -30 -90
52 -26 30 10 -42 -18 -34 4
98 22 32 74 -48 30 -58 -80
50 70 44 40 82 32 -18 -20
56 44 36 84 46 24 52 42
-14 50 28 40 22 -18 32 82
28 88 28 -24 2 18 36 -50

-31 -13 -11 -33 -19 -27 1 -27
-65 -83 -23 -39 -81 -21 9 9
-105 -71 -11 25 17 53 33 55
-95 -39 19 109 151 85 33 -17
-63 -63 -45 7 21 -1 -15 -37
-25 -41 -77 -113 -139 -137 -105 -55
-39 -23 -105 -129 -43 5 15 -19
-5 -37 11 -65 -11 -87 -69 -83

69 15 57 19 -47 -23 5 -27
-1 53 9 25 103 75 85 -15
-9 -71 -19 13 73 49 89 19
25 -39 -81 -43 19 41 129 43
13 -31 -37 -9 -43 31 29 67
47 -45 -81 -69 -51 35 139 69
41 37 15 -5 65 177 95 57
71 23 -13 -73 65 65 83 41

283 61 339 73 339 59 243 43
101 131 107 63 141 33 -25 27
153 39 55 11 15 -5 -69 -27
-49 -37 33 -49 -59 -45 -45 -47
55 -129 -63 13 -1 -47 -65 -43
-111 -67 -135 -71 -129 -223 -175 -61
43 -61 -39 -107 -169 -113 -35 -13
-47 -59 -43 73 39 103 33 127

48 -34 0 -62 -68 -88 -24 -164
26 48 8 -16 -58 -70 60 -52
-86 -20 -108 -116 -56 -56 76 -34
-84 -60 -86 -128 -18 -28 16 -30
-96 -68 -38 -78 -24 -14 68 -10
-102 -74 -34 62 40 58 118 0
-12 4 2 26 120 92 38 0
22 -26 -6 50 84 -36 -58 -104

91 -27 159 -27 135 -61 107 43
33 19 -1 -61 -59 -55 -1 47
-3 -17 -69 -85 -81 -105 -77 13
-33 -65 -87 -133 -167 -181 -145 -47
-5 -25 -55 -87 -81 -27 -61 -39
-51 9 -19 -3 67 9 -11 -5
-29 19 -43 29 47 63 -47 63
-99 -135 -55 -103 -53 -121 -131 -41

68 46 8 42 -12 16 -4 12
66 28 4 32 74 -18 -28 0
34 28 -56 -104 -8 -36 4 -2
-36 -24 -78 -92 -114 -60 -20 -34
-96 -92 -42 -78 -64 -62 28 22
-66 -134 -70 14 -56 -10 102 108
-52 -72 -22 82 96 116 126 72
2 -50 -86 70 20 84 -14 76

24 -58 -12 -70 -96 -20 -16 68
-38 -96 -100 -60 -2 -22 -24 68
30 -16 0 -40 8 60 -28 38
40 20 14 -28 -46 -4 -40 -10
20 64 26 66 -8 82 76 2
46 78 82 94 132 206 170 108
28 24 -6 -14 56 28 -50 -68
58 66 58 -6 40 -52 -66 -28

47 53 -5 53 27 31 39 123
173 43 11 11 5 1 7 75
-43 -37 -65 -37 3 35 43 93
39 -17 9 -17 -35 -17 71 61
-141 -89 -43 -39 -9 49 79 117
33 -91 -79 -75 15 33 -35 111
-73 -13 -47 -23 -5 35 25 23
9 -51 -39 29 51 43 -15 43

100 126 88 82 28 40 -16 -40
30 44 36 12 -6 -6 -16 -8
-18 -76 -4 -48 -20 92 12 18
-72 -28 -18 -20 42 44 20 58
0 -60 50 -22 48 70 -12 62
-22 -18 30 -46 -56 70 62 120
12 -16 22 30 60 116 110 0
-6 38 -2 38 92 92 90 68

21 39 69 39 17 -47 -111 -39
-1 -11 65 49 47 15 -115 -99
11 29 133 37 45 17 -39 3
25 -11 143 5 123 53 41 75
-55 21 155 95 113 83 49 55
-33 -1 71 83 173 151 31 1
-39 -75 27 51 25 -43 -81 -51
27 15 -5 -25 29 57 59 41

33 67 45 -29 45 29 -15 -63
31 -23 -47 -83 -53 -29 -83 -123
7 -59 -47 -75 -27 -15 -47 -65
9 -71 -37 9 -9 -27 -3 -1
57 -43 -45 -77 -39 -17 -11 -9
11 -73 -57 -49 -103 -21 -21 9
-43 -131 -49 3 61 69 11 41
-33 -45 15 87 49 -15 -41 1

16 86 60 34 76 -60 -36 -56
6 -12 12 8 18 -54 -132 -112
-38 -88 -52 -24 -60 -96 -36 -90
-20 -76 -86 -4 -10 36 116 22
44 -76 -78 14 16 -30 92 -2
2 -46 -78 -42 -48 46 14 60
-56 -112 -26 34 4 48 86 52
-74 -102 -114 -38 -24 60 98 44

120 130 156 86 60 76 92 84
130 172 196 88 58 122 104 88
94 196 172 56 32 112 76 74
84 96 178 40 58 116 72 66
12 20 46 74 76 110 0 62
18 14 46 54 -28 34 2 40
40 24 46 38 -12 -28 -54 4
154 86 162 74 76 0 110 56

8 -2 -4 10 72 108 108 112
62 -36 -4 8 2 74 120 52
-6 -28 -24 -60 36 36 92 74
28 -92 2 -40 -58 4 80 42
-52 -68 46 62 64 -42 12 18
42 -26 26 94 116 114 -6 24
-44 -84 26 38 84 0 -94 -28
2 -54 -106 58 -64 0 -178 -44

92 -66 80 -62 124 -76 164 76
-114 -84 -8 -52 -62 -58 -20 108
-6 -24 8 -24 -60 -52 -36 14
-44 -60 2 -24 -42 -80 -116 38
-20 12 94 18 32 -58 -64 18
10 6 90 62 20 -118 -46 72
76 24 62 18 -52 4 26 8
-2 22 90 -18 0 36 -10 44

-40 -66 -100 -50 -36 -12 -20 -44
-50 -56 -80 -56 18 38 88 -8
-10 -80 -40 -16 -24 -12 8 -6
-64 36 -102 -24 6 -72 -80 -22
24 68 26 -34 68 -34 12 -14
-46 22 -18 -86 -48 6 26 44
80 88 50 -54 -24 16 30 40
62 62 42 -50 12 40 106 68

-55 -37 -87 -29 -27 -3 -83 -99
-53 -43 25 21 -9 -37 -71 -43
-61 -119 -55 -59 -127 -75 1 -45
-79 -123 -37 -103 11 41 17 27
-43 -75 15 -65 -75 -53 -71 -69
-21 -161 -45 -41 -103 -89 -65 -63
-51 -115 -53 7 -35 -3 -5 -27
35 -49 -5 35 65 53 63 37

-29 -55 -17 17 -13 -37 -57 -101
-19 -37 -25 -93 -51 -87 -109 -65
-75 -133 -169 -105 -73 -101 -77 -51
-21 -145 -163 -77 -139 -129 -33 -75
-29 -117 -103 -99 -45 -131 -73 -19
37 -127 -199 -199 -113 -135 -103 3
35 -61 -135 -79 -25 -33 1 3
57 -91 -51 -31 -9 51 61 7

-59 71 65 7 41 69 93 5
-53 -7 61 5 43 59 105 125
-129 -19 9 -3 45 1 -31 -1
-51 -99 -21 1 63 85 -19 99
-99 -59 -1 -17 37 35 33 -9
-49 -73 -65 -69 1 -1 -69 25
-75 -119 -65 -41 41 9 -9 -15
-53 -41 -9 27 41 13 -45 25

21 -45 77 -29 13 5 93 29
15 37 -7 -19 23 11 53 13
-13 -35 -71 -47 -99 -79 -11 -17
-31 -99 -109 -59 -33 -51 -27 -65
-63 -91 -89 -101 29 3 33 -5
-53 -69 -81 -65 -47 -65 -65 -27
9 13 39 39 -39 -59 11 -35
15 -33 11 -29 29 29 39 69

-69 1 -13 -19 -81 -41 -137 11
-55 -13 19 -77 -107 -39 -93 47
-135 -1 39 51 -21 -13 -89 5
-81 11 -35 -1 -67 7 -9 13
-109 -97 -111 -55 -97 -11 -77 -59
-15 -71 -31 -27 -77 -23 -11 -1
-53 -9 1 101 27 71 57 83
-47 13 33 37 11 15 -7 -1

-32 -6 -76 -30 -72 80 72 116
-58 -68 -16 -60 -26 126 112 76
-38 -108 -36 0 32 96 80 110
-36 -96 -22 28 18 -16 -76 -102
-40 -32 -66 -6 -28 -50 -76 -114
14 30 -30 -118 -120 -106 -142 -172
56 80 34 -66 -64 -56 -38 -76
54 50 54 -54 -36 -72 -42 -16

60 130 44 146 112 148 120 136
74 92 152 120 114 118 -32 -24
78 68 72 8 -48 -44 -76 2
-20 48 22 -64 -58 -44 -4 -34
-28 -32 14 38 -16 -2 -40 -74
-2 -110 -106 -38 -64 -162 -234 -164
24 -28 -30 -110 -276 -276 -206 -88
58 -18 -34 -14 -8 36 70 72

55 -23 111 45 67 27 -1 -9
33 -1 59 71 101 149 91 -25
41 19 23 15 55 87 127 61
19 3 -39 -5 -43 -33 71 13
-5 19 97 93 79 21 123 97
-27 5 109 105 91 17 105 123
71 -5 1 77 79 71 161 163
53 1 -3 -19 31 63 85 63

-84 -38 -20 -18 -52 -24 -64 -68
-78 -84 16 -40 -70 -38 -108 -92
-46 -80 -4 72 12 -4 -176 -38
24 16 22 28 30 0 -88 -10
92 108 118 30 72 6 -28 62
150 182 162 22 -8 -6 34 32
108 172 142 70 92 48 138 96
22 78 46 62 -20 8 74 48

-87 -173 -55 -113 -79 -175 -135 -55
11 -19 -7 -43 3 -25 -83 -67
51 57 37 49 81 9 41 47
25 29 35 37 15 29 21 23
9 29 91 47 29 35 -23 3
-81 -101 11 -37 -47 11 59 85
-91 -147 -57 -37 -55 -19 -5 33
-37 -117 -57 -45 17 -35 -41 -75

-67 -21 -147 -121 -119 -107 -107 -35
-41 -39 -115 -131 -69 -109 -27 -51
-41 -47 -67 45 33 -19 49 59
-31 49 119 13 19 49 41 75
-27 -39 75 7 53 39 93 107
-21 -53 -17 55 137 139 59 61
-27 -31 91 147 137 105 -25 25
15 59 55 51 21 -3 -33 -31

-99 -77 -143 -73 -63 -31 -23 5
-45 -7 33 57 27 71 61 85
-45 53 1 69 25 113 109 11
21 125 43 117 119 93 105 47
17 113 55 -21 -3 -9 -27 -81
-65 79 -9 -45 1 -69 -33 -71
-31 29 35 11 -27 -75 19 -19
-9 7 39 19 1 -39 3 -23

63 13 67 13 47 11 43 51
-63 -81 -5 -57 -23 -43 -113 -77
61 -1 135 -9 -17 -1 -65 -11
-13 -29 -7 95 49 75 19 53
83 31 -27 25 27 -47 -5 -99
97 153 41 -55 -21 -19 -27 -57
115 91 5 9 -53 15 65 51
33 25 1 25 59 67 125 107

-16 -2 -20 -66 24 40 36 16
-94 -108 -92 -48 -14 -2 -8 -16
-70 4 108 108 100 68 -4 18
20 -16 106 160 142 44 84 82
28 -12 46 82 40 66 -12 2
30 14 70 58 64 94 -34 4
16 -16 74 66 0 16 -38 -12
6 -22 50 50 -40 -44 -46 12

-10 -28 86 48 26 22 -6 70
16 42 58 78 -8 8 18 66
-40 -6 -6 6 -30 26 50 132
-14 58 4 42 44 78 42 160
-126 14 24 76 50 4 6 100
-80 0 56 144 38 60 32 106
-82 66 12 28 22 34 80 154
-8 104 48 32 -10 -10 92 102

-84 -54 -116 -118 -160 -176 -76 -28
-30 0 0 -4 -42 -102 -16 32
-6 44 32 60 44 48 16 54
52 92 102 108 150 80 48 -10
96 152 122 98 104 30 -48 -70
54 166 86 -2 -16 70 -26 -60
132 148 74 -18 -48 -36 -18 -44
134 126 70 -30 -4 -4 14 -32

-76 -102 -68 -102 -88 -120 -132 8
-78 -92 -44 -72 -78 -134 -112 -40
-22 -44 28 40 20 -28 -52 -34
36 28 -78 60 50 44 48 -6
40 52 -2 -6 -4 34 24 -30
-2 82 42 2 48 54 42 -56
52 20 30 50 36 -12 -10 -40
42 70 46 -6 12 -80 -50 -60

7 -59 -61 -99 -121 -129 -45 15
-35 -49 -17 -85 -31 -35 -13 23
-123 -93 -49 -45 -9 -29 -57 -71
-53 -29 -75 -53 5 -41 -89 -91
-25 -13 -83 -55 -1 -31 -25 -35
-39 17 -75 -55 -69 -43 69 -29
-17 -1 -27 -23 3 103 45 -29
29 -19 21 41 39 23 25 -9

-3 -81 -43 -61 -67 -171 -83 -119
-57 -83 -95 -103 -101 -137 -71 41
-81 -59 -87 -67 65 45 57 67
-67 29 19 45 63 65 1 -1
-11 -19 -13 39 73 83 61 -1
-13 -9 -29 -85 -27 -5 83 -19
-15 73 -17 -61 -59 -35 -29 -67
-69 31 -25 -65 -79 -43 -25 -23

-70 -8 -38 -16 -6 -102 -70 -10
-64 54 38 90 80 112 50 2
-76 66 106 78 50 126 58 36
-18 70 80 90 108 138 62 44
-94 78 80 108 130 72 -62 92
-56 136 236 120 50 4 -8 86
-78 170 224 156 -50 2 100 130
-88 168 96 100 -98 42 -4 50

-110 -36 -38 -88 -54 -6 -58 -54
-104 -154 -86 -42 -44 -56 -86 6
-148 -130 -98 -78 -94 -50 -18 -76
-106 -178 -192 -70 -52 -6 -26 52
-130 -90 -112 -76 -82 -28 -62 -56
-8 -92 -48 -80 -26 4 -16 62
-94 -138 -36 8 -34 -18 -44 -78
-52 -124 -100 -60 -118 -70 -40 -18

-57 -39 -41 -71 -17 -61 -57 -17
-43 -65 -61 -97 -107 -55 -49 -13
-27 -93 -109 -65 -181 -209 -161 -71
-41 -5 -71 -29 -47 -189 -125 -103
27 7 -59 -19 -69 -43 -57 -43
77 37 -27 41 7 45 17 -25
55 -21 -63 -55 -25 7 29 -33
37 -47 -63 -47 3 -45 -27 -73

-30 -8 26 -8 46 -6 34 -18
52 -78 -98 -118 -12 -88 -138 -62
-20 -86 -62 -142 -82 -58 -174 12
74 -102 -84 -66 -72 -66 -118 20
14 -30 -80 -96 -58 -56 -42 0
72 -72 -64 -132 -74 -76 -140 -94
-54 -142 -104 -128 -86 -166 -100 -82
-100 -140 -164 -148 -118 -138 -128 -74

20 114 128 190 224 228 212 172
62 128 168 136 134 170 104 64
2 0 -8 60 -36 36 -28 -10
4 -36 -78 -20 -18 4 32 46
-20 -84 -26 -18 -40 14 -44 10
-78 -50 -22 -50 -52 2 -46 -24
-64 20 42 62 48 40 94 60
-118 -58 30 38 28 20 14 -8

-70 -76 -114 -124 -78 -62 -14 -150
-36 -22 -34 -22 0 4 34 6
36 6 30 -10 14 -46 26 4
102 10 -4 -78 -8 -106 -62 -40
30 -34 -32 -40 2 -92 -66 -76
12 -72 -96 -92 -94 -80 -68 -10
30 -22 -132 -172 -58 -26 -8 2
60 52 -56 -84 14 -34 -16 -66

