1 5 -25 13 31 93 69 51
-55 -81 -45 -35 -39 -27 -9 -31
13 -31 -41 -1 33 29 57 35
-11 -25 -17 25 33 19 -25 -47
5 -41 -57 -29 -13 -3 -61 -27
17 3 -21 -25 -29 -7 -19 -17
11 -39 -51 -33 -3 11 37 33
59 -37 9 -79 25 -59 3 -61

-51 -59 -105 -63 -53 -15 53 27
-27 23 -57 -63 -75 -51 3 -7
17 69 -29 -33 -35 -23 -23 -25
5 83 35 13 25 -29 -25 -11
1 39 35 63 11 -39 -21 -27
-15 99 15 -5 -53 -3 9 -5
-25 97 29 -57 -51 -25 -3 9
3 59 1 -51 -19 1 27 -29

19 -53 -3 -49 -15 -45 23 -59
-37 -55 -63 -49 -65 -1 -31 7
27 -33 -15 9 -9 3 51 1
23 -23 29 63 27 -31 -31 -37
43 9 -27 13 -35 -37 -31 -17
-21 -31 -43 -59 -51 -5 11 13
41 7 -89 -55 -13 -15 -25 -17
5 -15 -49 -49 -69 -25 -47 -43

-2 -10 20 -26 12 -26 -34 -60
2 -4 68 78 90 90 -36 18
14 30 28 16 46 66 26 48
-14 -60 -76 -94 -50 0 -28 -14
-10 -24 -64 -68 -80 -70 -12 -6
-22 -16 -28 0 -20 -2 34 28
-4 26 38 32 -34 -8 2 -14
-8 12 22 -10 -10 -14 24 4

-54 18 16 34 8 -10 -18 32
-18 12 -4 22 30 26 -4 6
-26 26 -12 -4 -22 10 -2 64
-18 32 28 -14 70 44 60 46
-78 24 44 4 -4 22 -32 38
-94 -28 -20 -24 -40 -14 10 -8
-84 -6 -34 -52 -54 -16 -14 14
-40 -4 26 -66 -42 -22 20 -20

-36 -64 -14 -32 -18 -60 4 2
-44 -110 -82 -52 -84 -16 2 32
-12 -56 -58 -2 44 0 28 50
40 -22 -58 -16 16 26 46 12
32 -22 2 -6 -50 -104 -42 0
40 -22 -22 -46 -78 -52 -36 62
62 84 12 -2 4 18 32 108
18 86 -40 20 -32 80 22 74

1 -19 -21 -51 -49 -15 -47 -41
-19 -45 19 1 25 25 -29 -23
9 -11 3 19 -19 25 -31 23
1 -33 -17 -51 -19 -57 -49 -3
-7 -1 -13 11 3 1 55 81
-55 -9 27 67 79 17 49 47
-37 -51 -59 -1 17 -41 -7 37
-77 -25 -95 13 -15 -15 -69 7

75 -9 9 -77 57 -1 75 -27
-61 -47 -19 -17 -37 -29 -27 39
23 67 77 61 11 7 -13 5
27 45 65 7 -1 13 13 63
-1 -7 33 21 1 3 1 3
31 -11 -35 13 65 95 67 65
-3 -29 -65 -23 19 21 43 -53
45 25 35 -5 -25 -41 -27 1

76 56 54 12 -6 16 48 22
8 58 22 -48 -64 -36 -10 -32
64 8 -2 -38 -44 -16 20 26
-48 -26 -50 -60 -84 -46 -2 8
76 22 -38 -34 -2 -4 2 84
8 66 66 46 90 80 116 142
38 80 80 114 140 166 212 192
30 66 52 88 156 132 154 134

32 -72 50 -68 10 -92 -36 -78
-44 42 114 72 52 16 -26 32
76 32 78 78 60 72 -8 26
-24 10 90 76 120 74 34 40
80 22 22 38 70 8 -34 -12
-56 -22 -14 -30 -30 -28 -36 -18
26 -44 4 58 -32 10 12 20
-98 -50 52 100 8 36 -6 26

25 5 11 -15 19 -23 13 -29
17 27 27 29 73 57 71 -11
45 61 87 71 61 93 53 15
49 39 59 25 -39 15 7 -7
9 -9 3 7 -1 -43 -53 13
-15 -41 23 55 19 -23 -19 -25
-17 -7 49 31 13 7 -67 -7
23 -65 41 -51 -3 -55 23 -21

3 -29 -15 3 -3 27 -49 37
15 -15 -3 -5 -1 3 1 -21
43 -5 29 21 15 27 47 41
31 41 61 27 59 29 13 -1
-1 33 57 41 49 23 -31 -5
11 1 37 41 53 19 -41 -23
-7 11 -13 -39 -57 -31 -37 -17
25 5 -41 -45 -69 -29 -51 9

26 2 -8 -22 -4 -18 26 -48
42 72 72 126 62 66 48 22
106 98 68 -4 42 -18 -2 -12
54 100 28 -22 -34 -24 -20 6
-10 12 -16 -20 -76 -86 -16 -30
6 44 -4 20 8 10 62 44
28 42 42 4 26 20 18 -26
-28 40 -66 38 -42 42 -48 48

23 -13 29 -61 -3 -5 43 49
-117 -27 9 -73 -37 -37 -59 35
-1 19 53 13 47 71 3 53
-25 53 57 63 99 89 69 75
79 1 5 41 29 11 -27 3
-21 -7 9 17 -31 -41 -41 17
-35 -5 43 37 -21 -31 11 39
-59 97 51 83 -21 83 -39 61

-9 3 41 19 9 71 47 13
7 -151 -43 -21 31 95 33 11
-9 -137 -75 -3 71 107 31 73
-17 -119 -115 -73 -41 -43 -15 -5
-9 -63 -75 -23 -39 -29 13 55
11 -43 -35 5 -7 -9 19 81
49 7 -85 5 7 33 31 79
-15 -59 -129 -41 -13 19 17 21

-60 -8 22 68 58 88 -36 90
-16 -106 10 -4 12 36 -86 12
-36 -120 10 18 12 44 -60 46
20 -126 -50 -28 24 -14 -78 -4
0 -18 14 -6 -10 -68 -94 -8
56 -18 6 2 14 0 -20 -26
-14 -32 4 58 8 -18 0 32
30 -122 -16 36 52 -32 -22 -18

31 -57 37 -41 45 -29 31 9
-61 -135 -99 -101 -77 -69 -79 -69
-21 -125 -107 -87 -65 -41 -41 -31
-17 -83 -83 -61 -81 -75 -39 -25
39 -39 -19 9 1 -61 -59 -69
43 29 21 57 53 39 27 -7
13 -65 -41 -15 27 -35 3 -17
-27 -55 -53 -17 23 -45 -15 -19

-9 31 21 27 -11 31 11 57
-13 17 37 47 47 63 81 75
-13 -17 -7 45 23 35 43 49
-9 -7 21 27 35 37 69 43
39 21 33 33 13 7 61 23
59 33 57 57 49 39 35 -3
57 63 39 61 71 33 -37 -9
53 25 23 19 35 11 -15 -7

-15 5 7 17 -33 13 -79 51
113 91 151 101 17 25 11 -35
149 117 99 63 -15 13 -43 7
101 35 63 25 21 11 -21 -67
53 -29 -9 -1 23 5 19 13
37 -5 -25 7 11 21 41 -57
23 -31 -7 39 21 -9 -11 9
35 -41 5 -3 49 13 23 -53

-7 13 7 -11 7 41 73 27
33 -73 -37 -47 -35 37 59 85
17 -47 -13 -21 -31 -19 -27 47
49 7 27 65 45 59 -13 37
53 -1 35 43 -9 25 -41 -7
41 3 -9 23 55 37 61 43
3 -7 29 79 89 -1 1 -3
103 75 45 37 33 1 -45 -13

-5 35 45 39 17 91 11 77
39 -63 1 -5 43 83 13 -33
63 -21 13 61 35 91 143 21
55 1 -95 -45 -13 -31 -3 71
51 65 -3 -47 -43 -85 -87 -85
-5 29 25 17 -31 -25 -49 -51
25 -37 -5 1 -13 -55 -13 -9
5 -3 43 43 23 -33 21 1

11 35 -51 -57 -47 -5 23 29
19 -11 -47 -93 -133 -109 -83 -9
7 15 -11 -75 -89 -61 -9 17
-9 73 65 59 -5 -15 -39 -49
-5 69 37 9 33 -33 -11 -53
19 25 -31 -35 -27 -13 -25 -19
5 71 19 1 27 -19 -29 -13
49 109 63 7 3 11 -3 -3

56 60 -14 -12 -42 20 4 -14
36 -26 -78 -36 -72 -28 -6 20
36 20 -14 -38 -64 4 64 50
40 38 -6 -8 -24 -22 2 -12
52 -22 -6 -34 2 -80 -30 -4
12 -42 -46 58 78 48 48 62
54 -24 -56 -10 76 -2 -8 -4
78 62 -8 -52 -40 -20 -14 -18

13 -15 71 9 63 33 57 -5
-43 -9 47 33 49 101 27 45
-19 45 55 -1 -3 9 -39 -33
-15 15 63 5 9 15 -5 41
-27 -13 -1 23 -25 -35 3 -11
-67 -41 35 27 -1 97 69 51
-1 9 53 71 89 91 65 21
-77 -13 -15 33 9 -15 -61 11

9 -39 -21 1 -9 1 -11 7
-11 -17 -21 -35 21 33 43 -3
13 -83 -25 15 25 97 73 47
-63 -57 -5 53 9 95 79 9
41 -5 59 79 83 65 67 29
-23 31 47 63 63 65 93 -1
119 53 45 51 25 31 29 -15
43 23 5 -23 -27 17 7 -29

18 70 72 70 64 54 -18 44
-30 -12 -16 6 46 82 -8 -14
42 -10 0 4 26 94 46 -16
-54 -52 -28 -14 -34 12 20 6
22 -16 -20 -20 -36 -62 -36 10
-70 -20 48 32 -32 2 -22 8
-8 -14 10 32 2 48 50 54
-44 -88 -34 -38 34 -70 24 0

91 23 93 35 97 47 47 -19
19 77 141 103 71 11 5 11
123 43 37 49 23 -29 -5 -19
-1 -59 -15 15 -29 -15 -23 -41
31 -111 -71 -71 -47 -25 17 -17
-29 -87 -79 -67 -67 -81 -41 -7
9 -65 -73 -23 -33 9 51 55
-43 -87 -33 -1 -21 7 57 53

-33 15 -3 -1 -19 19 23 57
7 -11 5 -33 -65 -33 21 99
-29 -61 -75 -35 -33 3 31 33
-17 -31 -39 -17 -33 21 17 47
-45 -19 13 5 -3 23 53 71
-13 33 21 33 125 179 139 137
-47 39 43 85 115 137 127 115
9 33 23 47 15 71 37 61

4 -20 18 -64 -14 8 4 2
-36 -66 -42 -80 -44 -12 -30 0
-12 12 -34 -42 -48 -16 -20 10
52 -2 -10 -48 -68 -54 -10 4
-16 -14 22 26 18 32 -30 -8
-28 6 98 170 114 96 48 34
-30 -20 80 126 72 18 12 -8
-46 -34 -28 40 -16 -72 -122 -34

-18 -42 -24 -2 -12 26 -38 32
-2 28 76 74 74 66 -32 62
34 6 44 12 30 10 -82 20
10 -24 12 6 2 4 12 70
14 4 24 24 -8 66 40 14
10 64 16 52 64 106 18 -12
36 98 114 80 82 4 -42 -50
-4 52 10 26 6 -10 -56 44

18 78 60 82 60 34 22 24
22 8 -16 -14 -26 -86 -88 -74
-2 22 -4 -20 -54 -66 -22 4
-22 -24 -36 -30 -62 -132 -4 18
-30 12 24 8 24 -18 -36 50
14 -4 24 72 92 118 62 36
-44 -18 -34 68 62 88 30 50
-20 -28 -10 10 -6 -22 0 4

21 -3 -17 -27 -21 13 -23 -81
-7 -65 -69 -71 -99 -99 -109 -75
9 37 -9 -45 -79 -59 -67 -65
-75 19 3 13 -23 -13 -1 13
-47 -13 19 51 55 21 27 17
-63 -37 -17 35 15 -23 -51 3
-61 -87 -71 15 -15 -45 -23 -47
-53 -65 -39 -27 -27 -7 -21 -1

19 19 97 -9 61 -29 11 21
-21 129 97 111 107 111 93 71
-29 83 93 73 83 103 51 77
-53 49 73 3 39 5 29 75
-29 -27 13 1 -31 -65 -27 15
-89 -7 61 45 -23 -37 -57 5
-27 -21 103 113 15 17 43 23
-63 -31 79 39 23 23 29 49

-69 11 -27 27 9 59 -13 73
-1 -31 -75 -53 -97 7 -19 27
-77 -21 -43 -75 -137 -1 -25 61
-21 -43 -7 -53 -21 1 -39 47
-81 -71 17 65 69 63 25 55
-17 -43 -43 -31 29 75 -21 5
-107 -65 -9 -11 -5 1 -41 -29
41 17 11 11 27 67 -7 21

-17 15 33 35 65 -9 35 -51
-13 117 81 135 119 99 57 -1
107 163 89 85 143 103 59 -3
15 69 49 35 19 -11 -19 -33
27 53 61 1 -27 -33 -7 -49
-45 37 69 9 -91 -85 -33 13
29 31 15 -75 -97 -63 -29 -53
-27 5 -49 -53 -129 -33 -19 25

0 20 14 16 -54 -24 -96 26
20 78 106 76 48 32 -6 48
28 52 46 -26 -8 -28 -16 10
-24 -14 -18 -52 -68 -26 -66 -4
-56 -62 -58 -66 -42 -28 2 16
-28 -22 22 6 -50 -24 12 6
-10 0 56 38 60 62 4 12
-38 38 64 120 36 52 30 70

-33 11 -31 -17 -35 -1 -9 17
-5 -27 -3 23 63 51 1 19
-41 19 13 41 31 59 11 29
-1 -15 45 15 -17 -11 33 83
-17 9 21 65 -11 -25 -35 39
-13 -47 37 113 65 3 -69 57
-51 -53 -13 33 7 -19 -73 23
-39 -35 -45 -1 -1 11 -7 17

44 144 78 120 58 132 32 78
84 74 66 -8 -24 -4 30 -24
24 36 22 -10 -48 -48 -4 -54
8 30 10 8 4 -50 -22 -44
-8 -42 -54 -14 -22 -36 -2 16
-56 -34 34 34 10 -4 20 -6
-50 8 52 78 104 58 64 88
-22 -26 48 12 20 -52 10 -50

6 -22 4 -2 -16 6 14 8
-6 -116 -40 -18 -70 30 -8 -6
2 -78 -88 -60 -54 -2 -10 40
34 -68 -80 -22 6 -20 0 -14
14 -40 -44 -32 20 18 4 14
50 -4 -72 -60 -32 -10 22 8
56 50 -66 -20 -26 -24 78 62
100 52 26 -38 86 22 132 16

22 30 28 -26 44 -18 46 24
26 -4 12 -22 -26 -58 4 50
14 -2 8 -4 10 42 -22 -4
2 40 40 18 30 88 0 -10
26 20 40 0 24 26 -24 -46
66 32 20 -16 -40 -54 -70 -4
24 74 66 28 -22 -56 -46 -22
48 64 34 -22 -30 -6 -20 4

25 9 39 17 23 -3 29 3
-27 -41 -5 5 -3 25 -33 -31
-3 53 51 47 61 81 -3 43
5 7 19 25 49 83 39 65
21 51 7 47 59 -3 -21 -3
-3 39 -25 -9 -69 -27 -31 -5
-9 -11 -43 -9 -7 -21 -59 -27
-1 7 -47 5 -27 45 7 47

-3 21 -21 9 -13 29 13 51
-11 -57 -33 -55 -35 5 35 1
37 -19 -9 -1 57 -7 29 47
73 15 35 65 45 -5 -33 -43
49 27 19 23 11 -19 -53 -19
53 -65 -57 -1 67 65 -11 3
15 -11 -51 -41 1 -9 -47 33
111 63 9 -31 -27 -35 -13 -13

-66 -58 -100 6 -24 50 -50 -12
26 -12 48 82 94 122 76 26
2 34 12 -20 -10 42 54 40
30 12 -48 -98 -82 -72 -48 -38
-82 -20 -40 -56 -80 -62 -32 -22
-54 -64 -72 4 0 -18 6 60
-60 -30 -22 56 18 4 2 14
-8 -36 -2 18 30 -10 24 4

31 23 -15 43 9 83 51 -51
87 33 49 103 111 91 153 -13
31 67 5 -7 35 31 51 97
15 41 -11 -69 -21 -39 -91 -45
-81 -39 41 -27 -51 -13 -35 -9
11 -87 -99 -15 -15 -5 -1 -23
41 -17 -21 -19 27 -51 -13 -25
29 1 39 -37 35 -9 1 -39

-4 48 18 16 -2 28 28 18
56 94 70 100 128 104 78 24
4 136 70 42 40 64 4 30
-4 30 10 -8 -8 -26 -50 -88
-76 -54 -18 -2 -14 -8 -22 -8
-32 -50 -70 -66 -26 -32 -28 -46
-70 -4 -32 30 36 26 -24 -16
14 -54 24 16 80 20 70 -10

56 48 126 40 138 36 80 -6
12 138 130 124 124 120 114 40
32 76 98 146 128 120 116 62
-4 -2 38 56 80 74 98 40
36 -34 26 18 22 4 38 40
24 18 42 78 46 24 24 -2
10 32 40 54 28 14 -12 -12
-14 50 4 -48 -24 -44 -38 -86

51 31 45 43 29 3 -29 -7
7 -47 1 -33 -49 -73 -67 -45
27 -21 13 77 31 39 -1 17
11 -27 25 11 -17 33 21 11
35 -27 9 -3 -35 7 -27 -41
35 -15 -63 -79 -55 -33 -53 -7
-27 -65 -81 -7 -65 -19 -41 -25
9 -47 -13 31 -17 15 25 17

58 42 96 70 56 42 -2 -76
42 56 100 126 74 86 -60 -26
74 66 84 72 18 18 -74 -32
2 24 56 50 -46 -56 0 70
42 4 4 -4 12 22 4 10
34 48 4 -4 28 34 -38 4
28 -42 -42 -20 66 32 -54 -14
-48 -64 -70 -42 -30 -42 -52 24

27 -5 37 43 37 23 -9 -15
19 9 9 -1 -9 -45 -43 -41
31 35 -47 -47 -73 -37 19 -19
31 9 -23 -73 -49 -83 -7 -45
3 29 13 -3 -35 -97 -31 -77
7 21 37 33 57 -37 -33 -27
-15 -49 -13 33 39 -7 -21 -17
-19 -35 -25 -21 11 3 -51 -15

39 -21 13 -57 -35 -89 -25 -43
55 21 -19 -1 -41 -73 -99 -49
83 59 29 -23 -81 -37 -25 1
63 41 53 -9 -13 -11 1 -1
63 49 37 25 25 15 -27 -17
-5 9 21 1 17 -17 -53 -31
-35 -37 -29 13 31 -11 -5 27
-39 -55 7 35 19 11 5 9

29 -27 -21 -43 -29 -67 -39 -29
41 7 -5 -15 -63 -67 -57 37
85 57 51 -37 -67 -27 -15 27
45 11 19 -95 -71 -17 -109 -63
25 -37 -37 -101 -105 -135 -125 -59
5 -81 -25 -85 -53 -47 -47 -37
11 -11 -19 -9 -35 -9 -19 -7
-13 -9 -27 -27 1 -11 -13 27

44 32 22 -40 -2 -48 -20 -34
48 50 38 -20 -56 -20 -34 -16
8 -4 18 -26 -52 -28 -36 18
4 -70 -58 -96 -64 -58 -6 -24
-40 -78 -78 -78 -78 -64 -62 -8
4 -46 2 -10 14 0 52 62
-18 24 28 46 68 78 100 116
62 54 64 60 64 52 42 50

48 16 38 0 2 0 16 -6
116 94 90 84 84 124 22 -20
76 76 70 22 40 36 24 30
44 50 18 16 44 34 18 -4
12 -14 -6 10 30 64 26 36
-20 -26 -54 -54 -42 -76 -76 -74
-6 32 -32 -14 40 54 48 48
-58 -18 -8 48 72 28 -22 -18

40 144 146 128 118 72 36 30
32 54 34 -48 -44 -40 -22 -32
-20 8 -14 -58 -52 -64 -68 -74
-44 -54 -46 -52 -60 -78 -54 -68
-44 -46 -86 -50 -78 -88 -30 -12
-48 6 -22 -38 -34 -52 -8 10
-58 8 0 -2 40 58 76 32
-38 30 -12 16 -12 -16 -42 -14

5 73 23 57 19 73 17 99
-7 31 15 -11 49 49 15 49
5 -43 35 11 13 41 -15 63
-51 -93 7 5 -3 7 -69 -7
-11 -85 -77 -25 -37 -19 -61 49
-39 -1 -61 -81 -29 61 -43 -5
3 53 -39 -61 -75 7 25 17
-25 11 -63 53 -47 65 -33 43

31 43 33 63 29 71 39 45
95 97 117 83 43 75 65 15
71 91 93 41 35 15 11 5
39 53 65 63 71 53 -35 -25
3 61 37 29 13 -1 -87 -25
43 5 -43 -51 -15 -53 -9 -67
-19 19 3 -7 -21 -11 -57 -37
-7 1 7 19 11 -1 -3 -19

7 -45 9 11 -19 -9 -61 -47
23 -95 -15 7 -9 -25 -63 15
75 -73 33 85 31 35 -1 -11
103 -23 77 119 51 69 37 87
67 -47 57 49 33 3 9 -13
55 -59 9 21 -23 -61 -17 41
17 -77 -17 17 -1 -27 19 -25
-15 -71 -5 47 -1 -17 9 37

-4 -36 -30 -4 -38 -12 0 14
-48 -114 -74 -32 -20 -8 30 4
-52 -60 -26 -14 32 44 64 -14
12 -14 -50 20 32 38 -46 -4
8 14 -26 -14 -26 -52 2 48
20 22 -14 -22 -70 16 104 94
10 28 8 14 56 90 84 56
30 26 -12 8 12 24 2 -14

36 -16 -30 -44 18 -16 20 -42
0 -30 -22 -24 4 -36 -30 36
24 4 -2 -38 -32 -48 0 -26
-24 -2 -38 -72 -84 -46 -26 28
24 38 34 -54 -86 -24 -58 -84
16 18 46 6 -14 0 -20 58
30 -28 -8 42 48 62 68 4
-22 -26 4 36 68 32 -10 10

34 46 88 58 56 62 2 -20
-30 60 76 106 110 122 -28 -34
30 54 48 56 86 50 -54 -8
-26 -52 -40 -66 -26 -48 -48 10
-6 -52 -96 -72 -60 -14 16 42
-6 8 -60 -56 -20 -18 26 24
24 34 -34 -80 -18 28 6 -6
-32 20 -58 -34 -22 6 -48 24

113 145 155 141 131 133 101 27
97 87 67 53 81 33 11 17
29 1 39 -5 1 13 -19 31
-51 -69 -65 -59 -71 -69 -65 37
-71 -61 -5 -41 -21 -47 -21 25
-63 -37 -25 15 11 37 1 35
-61 -67 -27 15 37 31 -19 29
-49 -57 9 9 21 -3 -5 27

-94 62 -84 38 -76 42 -178 60
66 44 80 22 14 42 -32 18
-14 -6 32 0 14 82 30 20
34 -32 -20 -6 18 40 44 26
-34 -12 24 48 44 38 8 -6
-6 28 28 -48 -64 -42 -62 -56
-76 -26 30 -8 -6 -8 -58 -22
0 40 50 26 14 10 -28 -32

-33 -25 -39 -29 13 19 7 9
-57 -99 -55 -57 -69 -49 -95 -25
-17 -69 1 -47 -41 3 -77 13
-61 -91 9 -5 -21 -23 -91 15
-25 -95 -35 -19 -27 -53 -39 7
-9 -63 -59 -15 -71 -37 -45 25
5 -89 -53 -43 -53 -27 -41 19
1 -27 -25 -13 -29 35 13 65

67 -145 49 -137 73 -121 71 -155
23 21 65 39 15 31 25 39
59 11 45 29 43 51 55 13
11 -35 21 -33 3 81 1 91
-33 -27 17 -19 -11 23 1 -57
-1 -19 65 29 -27 -69 -37 13
-27 -33 3 1 -37 -31 27 -33
1 33 43 47 27 35 13 73

0 -16 26 -12 70 -4 8 -38
28 30 58 52 96 24 2 28
60 44 54 50 -32 -16 -4 38
96 30 -14 -12 -52 2 2 -12
40 2 -34 -74 -74 -40 -30 -56
28 10 -50 -38 22 20 -32 -14
10 24 0 18 12 -50 -80 24
-18 14 -24 -24 -112 -40 -34 46

-41 -9 -55 -81 -51 -49 -49 -3
-65 -55 -71 -81 -89 -73 -91 -49
-41 43 -3 -27 -9 -17 -41 25
-29 5 41 23 63 29 -7 23
-25 25 25 53 29 -29 -15 -9
-13 49 61 1 -63 -5 7 -31
-63 7 39 -31 -13 1 23 23
5 33 23 -41 -25 11 25 -11

9 45 -53 -3 -49 61 13 -5
45 11 -21 -15 9 41 71 5
21 49 -13 3 9 -27 -3 -13
53 39 -13 25 -19 3 -41 -43
45 63 7 39 47 -23 -29 -15
45 35 -9 -5 47 -31 -47 3
15 41 1 -5 25 15 -35 33
15 35 -23 1 29 -7 -17 -65

-46 -30 -112 -42 -64 -26 -62 -4
-58 -80 -108 -94 -46 -58 -20 -2
-34 -70 -128 -128 -66 -14 38 24
18 28 -64 -90 -94 -56 -28 -46
-10 84 32 -28 -48 -90 -104 -66
10 52 56 88 68 30 26 0
-16 18 50 44 26 -8 2 -2
16 -44 -14 -6 6 -18 0 20

59 -85 -15 -57 37 -29 79 -3
-5 -51 -23 7 -25 -41 5 -13
51 11 33 13 27 43 -9 29
43 21 -27 -29 31 -11 -11 27
75 29 -59 -75 -55 -65 -83 -25
43 9 -67 -43 -27 -41 -53 5
5 -29 -45 37 -9 13 -5 11
1 -31 35 71 39 -21 -7 21

-15 1 -17 -3 43 41 9 -5
-43 -13 -77 -91 -95 -67 -97 -35
-7 -31 -49 -101 -91 -83 -91 -9
-31 19 -25 -35 -71 -133 -109 21
9 -5 19 23 -45 -99 -77 -15
-7 -9 35 71 43 5 -39 15
-33 -55 -75 -53 -47 -65 -63 21
-5 -37 -75 -119 -111 -127 -85 -5

-52 24 -34 20 -66 -20 -32 54
32 30 30 28 8 20 86 112
-28 -28 -2 -18 -12 28 56 54
24 6 34 -4 24 34 78 76
-32 -6 38 38 -26 28 70 40
52 46 34 18 30 28 68 42
6 108 52 46 68 74 -4 -28
54 50 52 0 36 32 -18 -46

31 47 37 3 -19 19 -29 29
23 -39 9 -41 -41 11 -67 -33
15 -77 -67 -75 -29 -9 -65 -11
-25 -99 -115 -69 -109 -35 -7 -21
-17 -63 -47 -67 -63 -9 -3 71
67 -31 5 33 69 103 155 117
57 83 47 141 131 213 215 171
105 41 87 87 147 139 177 85

18 34 24 26 -8 22 10 128
-18 -48 -32 -62 -14 -58 -80 38
-34 -34 -20 -36 6 22 -46 44
-26 -44 -20 -54 -42 -44 -100 -2
-18 32 -8 -112 -32 -14 -60 -10
-10 -4 12 -12 16 26 -30 -44
-48 42 94 88 2 0 -2 6
4 44 46 90 18 18 -20 60

19 -21 17 -73 1 -93 -41 -71
-41 -55 -51 -97 -77 -29 -47 -13
-33 -33 -23 -3 67 79 35 -47
7 33 17 39 59 85 69 43
15 37 61 113 117 51 57 3
3 5 77 81 73 55 31 13
5 27 31 -15 -29 -27 -29 -53
-55 1 -53 -81 -101 -73 -55 -11

-36 64 -34 68 2 72 -20 22
-24 -10 -22 -56 -72 -56 -82 12
-60 20 6 -26 -40 -4 -16 6
-32 -26 78 52 56 66 2 36
-36 -6 30 38 -54 -80 2 68
4 6 -50 -26 6 68 108 98
-46 16 -52 -26 76 134 56 12
6 58 -4 16 -4 -28 -70 -34

14 30 36 30 -8 14 42 64
-22 -68 -64 -94 -110 -30 -60 6
-6 -62 -68 -32 -22 -22 -38 0
10 -28 16 -10 -2 -44 -84 42
34 12 -40 -56 -52 -22 -36 46
66 68 -20 -20 -4 86 110 92
92 94 -34 32 54 96 110 126
56 104 6 34 2 70 4 44

-25 131 41 159 37 139 15 57
107 73 109 39 55 31 37 11
-53 43 57 -7 31 3 -17 -55
-5 1 13 39 63 93 57 23
-49 5 25 29 -3 -21 41 19
15 33 41 -15 -47 -33 -13 25
1 15 11 33 79 129 119 43
-15 5 23 71 63 11 -31 -31

5 -23 31 -43 111 -23 73 -29
13 27 23 5 -3 1 -1 -15
9 49 59 23 37 49 -3 27
9 75 51 81 109 51 27 33
-39 27 59 63 55 37 23 37
-3 11 63 55 51 101 93 59
-73 -3 53 59 41 51 29 65
3 35 25 5 -59 -27 -41 -25

36 -12 -2 28 -10 12 -20 26
20 -134 -90 -88 -64 -28 -34 -84
-28 -104 -82 -94 -36 -28 -40 -22
16 -118 -94 -108 -76 -102 -90 -52
28 -46 -62 -30 -14 -68 -14 -24
28 -58 -38 66 -2 -8 56 54
-22 -64 -48 38 32 -26 -28 24
6 -18 -8 32 56 -4 6 26

-55 57 -65 45 -25 77 -83 95
57 35 91 65 57 65 11 9
9 17 59 39 25 29 1 27
69 -33 15 -39 13 -1 -53 -35
-7 -61 -29 -53 -17 -15 -45 9
73 -53 -49 -57 -57 1 -63 -9
-29 -11 -23 35 21 -41 -55 53
99 75 13 85 -15 57 3 51

-51 -47 -9 33 19 113 45 51
-43 -65 23 -7 37 109 103 85
13 -43 23 75 57 109 89 67
-39 -33 11 57 5 23 11 33
5 -17 -29 27 -17 -67 11 41
-43 -9 -29 -61 -97 -63 -19 -1
-17 -43 -15 -49 -47 -61 1 9
-45 -21 -15 1 -83 -19 -53 -5

44 68 50 112 66 32 -4 -26
56 42 46 36 20 -16 -26 -60
108 104 90 66 100 116 40 -2
36 22 62 64 96 38 -26 4
-8 6 50 14 -58 -72 -30 48
28 14 2 -50 -54 32 84 74
50 32 -36 -38 -20 58 44 -8
14 14 -16 -8 -48 -52 -74 -50

8 44 50 24 66 0 12 26
80 142 118 172 188 152 102 4
36 80 22 50 48 60 76 -6
32 -30 -22 -48 -4 -6 38 -56
-40 -22 -38 -26 -22 -8 34 36
-52 -42 -26 -10 -38 -84 -24 -26
-42 16 36 -10 -32 -22 52 36
-2 -14 8 16 12 72 42 2

14 46 -4 -6 4 50 30 20
22 -20 -8 -14 62 82 20 26
10 -70 -36 8 22 14 -30 20
2 -88 -88 -50 -34 16 -40 22
6 -84 -24 -4 -8 62 64 50
34 -52 8 32 60 126 154 156
32 -22 -10 60 78 156 174 130
36 48 -50 46 26 178 128 104

-34 -26 8 -66 0 -18 -42 32
46 -8 16 10 26 26 -68 54
-10 -6 76 36 50 46 -18 44
34 0 84 122 98 116 44 42
-6 40 44 64 80 34 32 -6
34 -44 -8 40 44 58 -18 -16
-36 -70 30 44 -26 -20 22 -2
24 -80 46 14 -30 -62 -24 -24

-52 -28 -46 -44 -62 16 -32 42
-76 -70 -78 -52 -76 -56 2 -8
-76 -132 -138 -86 -48 0 -28 -18
16 -54 -82 24 36 62 -38 -56
60 34 -58 2 -50 4 -58 -64
88 70 -30 -22 -50 -28 -8 -14
50 60 -48 -6 -16 -2 48 40
46 82 -8 12 -12 -4 42 58

-22 -38 -24 -46 12 38 34 36
-22 16 20 30 14 74 68 90
34 66 20 4 26 30 2 16
10 8 36 38 42 -36 -16 62
-38 -32 -8 12 -8 -14 -24 -10
-54 -4 16 12 0 46 6 48
8 22 42 4 10 -4 -38 -10
-8 40 -14 2 -10 -6 -60 24

-33 -113 -55 -129 -31 -85 -45 -71
-1 -3 13 31 -9 -5 -35 -53
71 95 117 37 63 31 27 -3
31 73 109 59 35 37 -31 -33
31 17 5 -7 -23 -33 -23 11
-17 -47 -35 -51 -83 -117 -61 -23
5 -61 15 69 -9 17 51 43
-31 -79 63 103 99 31 29 45

29 33 19 -3 7 29 -35 -1
-35 -49 -37 -71 -79 -79 -101 -79
25 -35 -49 -57 -55 -47 -43 35
-23 -45 -49 -55 -79 -61 -85 1
5 -49 -33 -37 11 9 -17 45
5 -41 -29 -5 47 57 73 75
-13 -19 9 79 73 115 125 137
43 75 9 77 53 93 91 79

64 -52 58 -92 70 -76 68 -118
68 -42 34 0 4 12 26 88
-52 -44 -6 -22 32 40 8 -42
24 -38 18 44 52 58 10 32
-20 -46 -6 -58 -78 -44 -10 -56
44 -34 -10 -18 -38 -12 16 86
6 -20 16 54 36 6 28 -48
30 14 16 28 0 0 -2 70

-12 -40 38 8 22 -32 -4 -82
-8 62 98 124 108 124 70 32
76 40 42 114 52 72 8 10
36 66 54 52 24 22 14 44
52 42 6 18 -46 -44 -42 0
-4 -26 -10 6 -18 -28 12 38
22 56 12 -70 -52 6 -44 -48
10 -10 -72 -92 -64 -8 14 26

32 72 46 20 54 32 64 50
-40 62 66 4 52 100 114 44
44 92 94 30 32 76 56 18
-32 46 42 -16 -16 -10 -38 40
20 -10 -26 2 -34 -100 -62 8
-36 -10 6 18 -22 -12 -32 18
34 -4 112 62 32 70 36 52
-38 -2 20 0 4 4 -42 30

41 -35 55 9 107 57 37 -5
-35 -5 79 97 117 41 -73 9
73 -7 23 55 53 9 -63 43
-7 -17 -17 13 -7 15 -17 37
77 -13 -25 -65 -85 37 15 -15
1 -13 -69 -41 -13 57 -3 -33
7 -31 -43 -25 29 -57 -59 41
-81 7 -19 1 -83 -75 -25 31

53 33 51 37 -1 21 1 15
1 -37 7 -23 -39 -99 -73 -43
65 -39 23 3 1 5 -35 31
-3 -53 -29 -31 -3 -25 -65 -83
21 -65 -69 -93 -53 -39 -37 -15
5 -41 -77 -49 -53 -11 37 -37
59 -27 -31 11 41 83 109 93
63 11 37 9 77 61 123 47

35 -25 -35 -9 -3 43 91 61
-9 -7 -7 15 27 11 29 19
43 7 -15 -3 -17 7 -29 77
-29 1 37 -9 -41 -3 -47 -29
-33 -55 41 -15 29 3 -43 35
-61 -63 -11 -19 5 -13 -41 -19
-3 -33 -49 -15 -13 -3 7 83
-55 -39 7 -5 -25 -9 -39 9

0 104 70 112 138 108 112 70
-4 50 -2 -4 -12 48 22 32
-20 24 74 22 0 -24 0 78
-16 -70 22 36 -12 -30 -58 12
-76 -94 -18 14 -14 -20 -58 4
48 -122 -70 -14 -2 8 -48 -38
-46 -92 -40 -18 -44 -34 -40 -4
30 -86 -8 -48 -16 0 6 -38

40 0 42 -32 14 -24 0 -50
-76 -74 -98 -156 -124 -112 -46 -36
-32 -24 -54 -50 -68 -88 -16 2
-4 46 18 -4 16 -38 -22 -8
44 14 14 -2 14 -24 26 12
0 26 42 90 130 132 100 78
-2 -28 -24 50 72 42 40 4
-10 46 56 24 -8 -36 -94 -34

25 -35 11 9 7 57 21 23
61 -57 19 1 25 45 15 -111
89 -55 7 23 13 45 -19 11
105 -57 27 5 -15 -5 -49 -75
77 -53 -5 -5 -1 17 -49 17
77 -57 -45 7 -17 1 -19 -9
79 -31 -55 3 -7 -13 -11 45
87 -29 -19 -43 -7 -87 -49 -57

-18 -26 16 -62 -20 -70 -42 -32
-50 72 16 -18 6 -34 -12 18
26 66 48 4 30 58 38 32
54 88 68 18 46 44 60 42
22 96 12 96 20 -50 -20 6
-26 36 40 52 -48 -18 -30 16
-32 10 50 24 -66 -20 14 34
-44 32 42 -30 -2 2 20 24

-27 -19 -29 -47 -25 -11 -19 -25
-47 -61 -21 -27 -27 -19 -93 -23
-55 -27 -37 -41 -67 -15 -75 -13
-43 -37 -21 -15 9 -17 -53 37
-67 -29 39 43 39 5 -49 37
-51 -41 -5 -1 7 29 49 55
-73 -67 9 -25 9 107 -3 -3
-33 27 -11 9 33 45 -25 -5

-51 -7 -5 13 19 73 69 63
33 -17 -13 -15 5 61 47 89
-27 -11 15 15 -15 5 -43 79
33 23 -25 -39 -35 -1 -81 25
-31 -33 19 3 -41 -11 -29 37
53 -5 -21 11 -9 9 -7 43
-29 1 -35 -41 -27 -5 -43 21
15 -29 -39 -3 37 1 19 -33

-2 42 64 38 84 122 110 80
10 -44 -12 -22 38 86 44 -30
-2 -58 -4 24 14 -2 -22 0
46 -68 -12 94 62 16 16 -18
78 -20 -60 12 36 -10 -40 38
94 -8 -80 4 24 22 2 -28
-8 -46 -58 20 14 -36 38 66
84 -60 6 -70 6 -110 28 -52

43 -37 17 -37 -47 -77 -17 -47
27 -39 41 7 7 -9 -67 -45
103 75 145 97 127 79 3 -3
75 49 65 103 83 69 9 -1
55 53 33 -3 -3 47 73 39
43 53 37 -15 57 111 135 101
21 -25 7 17 23 9 3 -17
1 41 -21 -17 -33 -37 -75 -35

26 26 4 -6 0 62 38 44
-26 16 32 -22 -42 -42 -64 6
26 -10 -12 0 -22 18 42 36
-38 -36 -36 -50 -6 -28 12 50
50 -16 -40 16 36 -14 16 14
14 16 36 48 20 6 -2 12
48 30 -42 -44 -26 -44 2 -2
0 -4 -54 -58 -26 -22 0 20

-4 16 -26 28 46 72 16 -26
-12 -94 -74 -32 -8 52 -2 -40
40 12 -14 -62 -8 36 48 66
-20 -34 -2 8 -28 -10 18 52
8 -42 22 10 -46 -60 6 28
-32 -38 6 26 -14 -4 16 18
-42 -80 36 -14 -24 -30 -4 0
30 -6 40 -8 -16 -24 14 -22

-27 -15 -21 -35 -13 -47 -19 -13
-31 -61 -65 -63 -19 -39 -65 -55
-43 -15 -73 -69 -59 -67 -75 -37
-7 -13 -45 -107 -83 -113 -89 -51
-35 -33 -41 -53 -61 -111 -93 -71
-31 -17 -21 51 15 -47 -51 35
-93 -43 -55 -45 -19 -61 -43 9
-25 -49 -27 9 -23 -15 -29 31

5 -47 19 -19 -53 -43 -15 -29
13 -69 -1 1 -23 29 -53 45
9 -83 -13 3 1 45 -59 -73
5 -65 -69 -23 -3 -5 -37 21
-3 -29 -93 -89 -89 -79 -21 -59
13 -9 -57 -57 -61 37 69 63
-41 29 45 35 53 91 45 1
27 23 13 49 5 5 7 35

9 25 -41 -51 -89 -51 1 23
53 3 -37 -51 -15 1 3 21
85 53 27 63 53 77 13 43
65 83 35 1 33 35 -25 25
-3 55 39 -33 19 33 11 21
-31 -17 -81 -65 19 57 5 -5
-53 1 -55 -65 -39 -81 -79 -35
23 31 49 -31 -27 -11 -1 -45

184 -12 26 -32 30 20 68 -14
-116 26 -34 20 8 20 46 -64
260 36 -14 42 40 -4 -28 10
-124 38 -6 20 -44 -46 -38 -48
252 22 -2 2 6 -24 -66 -68
-144 10 -46 -42 -10 -76 -72 -30
266 32 -72 -18 16 -14 24 40
-114 38 -36 16 -24 32 -34 -26

-4 -48 2 -12 -2 -44 -12 -42
-32 -46 -30 12 48 52 22 -20
-24 -16 -50 -18 40 52 84 2
-20 -54 -86 -104 -68 -34 14 -24
0 14 -42 -70 -78 -116 -46 -48
-24 26 42 30 -42 -68 -16 10
6 40 76 38 -32 -66 32 -32
-6 62 24 16 -44 12 -14 10

85 109 55 21 7 49 -11 7
33 -25 -45 -83 -71 -63 -73 -79
61 -7 15 -45 -71 -15 33 55
-7 -21 -29 -55 -47 -29 -17 -3
41 -1 -1 7 -1 25 15 1
21 3 39 79 75 85 117 71
31 33 53 119 117 127 161 101
51 51 49 69 81 49 87 27

44 32 26 0 -14 8 44 6
4 -46 -42 -100 -116 -88 -70 -40
4 -80 -58 -78 -84 16 -4 22
20 -14 -18 -72 -68 46 54 80
92 18 34 10 38 12 78 84
68 114 118 114 110 148 148 178
82 92 104 122 120 150 160 152
22 66 48 84 100 104 98 86

-29 -5 -15 23 25 39 -33 -39
55 65 61 39 55 51 -15 -21
59 51 25 -59 -13 -9 -21 -19
55 69 9 -53 -17 -83 -23 -13
-21 -7 41 29 17 -29 -11 -13
7 1 13 13 -27 -49 -1 13
-55 -45 -53 -15 -33 -43 -13 -1
-47 -27 -17 3 3 -53 -47 1

1 77 75 37 51 65 109 47
-43 -17 -5 -35 -75 -67 15 37
-35 -39 3 -25 -19 -7 89 115
-27 -17 -57 -27 -3 43 83 57
9 -5 -29 -17 47 85 79 85
25 27 -21 7 55 57 69 127
-25 29 -7 -1 65 95 113 125
-37 27 5 25 57 101 71 43

32 -44 26 -68 70 -32 24 -38
20 6 10 8 4 24 -66 -12
36 48 38 10 60 72 28 -10
20 50 10 40 8 -18 -62 -16
12 70 -2 -22 -42 -60 -50 -28
0 30 6 2 -18 12 16 -6
10 8 -28 -2 8 18 -24 -16
-18 10 -24 16 -32 -36 -66 -38

-3 65 -37 77 -17 125 29 43
97 83 91 97 41 29 19 29
73 89 99 51 13 29 1 7
17 -17 19 -7 9 47 3 61
-43 -21 -21 -13 3 17 -37 -27
5 -21 -65 -5 7 53 5 35
-29 37 -51 31 41 -33 -19 -67
15 75 37 33 -43 17 -21 11

-26 -50 -36 -26 -12 -10 46 -8
-42 -4 -12 58 54 110 44 2
-18 -18 -20 16 66 78 38 -32
-22 -64 -100 -58 18 -24 -32 -22
-46 -36 -76 -80 -44 -34 -40 -2
-42 -16 -20 -48 -4 14 58 -4
-24 18 -26 -28 -46 -20 10 6
16 -4 22 -50 -34 -58 4 -20

-11 1 15 1 -33 -7 -43 -5
-3 -45 -93 -99 -107 -27 -85 -11
-51 -15 -41 -109 -99 -7 -23 -21
41 39 59 -11 -55 -53 -21 -19
-15 39 43 31 -21 -67 -13 21
-19 -29 63 107 51 73 81 99
-109 -55 -35 11 -39 -9 -23 5
-5 -17 -51 -3 -35 5 -73 31

58 -10 84 -34 32 -50 66 28
-10 -72 12 -50 -22 -22 -16 18
-2 -30 4 12 26 58 2 28
-6 -28 8 54 122 124 80 22
90 72 48 64 72 86 40 -10
58 120 44 -28 36 50 -6 -32
24 50 46 16 22 -44 -26 -18
44 76 26 30 22 -18 -48 -8

25 -19 -21 -27 -5 25 -3 -1
-71 -33 -81 -63 -19 17 -1 49
-19 -79 -61 -109 -47 -7 -7 -5
-35 3 -17 -35 -67 -17 19 37
13 43 23 67 71 9 3 9
-23 31 87 83 47 17 5 35
59 -19 53 43 21 -17 -35 -7
-5 -25 -7 17 5 53 -5 27

-164 48 -166 28 -162 20 -196 78
28 10 -6 28 -36 8 -42 -4
-40 68 42 42 72 92 84 94
64 102 74 100 80 78 22 -64
-52 62 46 38 2 -48 -58 8
28 26 30 42 10 -8 -48 -110
-74 76 -16 26 -48 -6 12 60
2 34 -16 -24 -80 -68 -34 -66

52 48 38 28 34 40 52 14
24 50 38 36 12 4 -62 -32
72 84 106 98 60 76 44 14
28 58 70 32 20 50 22 40
12 10 18 2 -34 -16 2 16
44 30 38 30 18 48 80 38
30 16 4 38 4 14 36 -36
26 18 -24 -24 -52 -40 -54 -22

97 37 123 -3 135 -27 77 -73
93 71 55 13 13 9 -1 -35
65 53 -9 15 -47 -35 -7 -37
17 -33 3 5 61 -41 23 5
13 27 19 -33 -57 -19 -45 -35
21 -21 39 -13 -5 53 61 23
63 73 5 23 117 143 141 57
35 51 13 13 45 -15 -37 -25

74 18 48 -2 -4 38 -10 12
38 8 0 -42 -2 46 -44 -2
38 -42 -76 -28 -66 22 -82 -44
-2 -88 -120 -50 -42 -64 -44 -22
10 -60 -28 -68 -24 -14 -24 22
54 8 12 36 28 30 78 84
80 2 34 72 106 200 230 158
28 40 18 138 146 186 132 128

35 -25 -7 -13 -3 -1 19 -19
-13 -99 -51 -49 -5 -5 -3 63
-5 -73 -63 -71 -25 -1 -17 -43
15 -39 13 -37 -45 -35 -95 43
35 -23 33 17 -39 -1 -99 -61
19 -35 9 89 57 -13 -41 53
45 -61 67 73 39 -3 -13 -17
17 -91 -9 79 59 15 -3 93

-3 -19 -41 -11 -81 -59 -63 -53
73 39 55 53 29 1 55 -23
81 93 75 67 53 81 41 -29
85 95 39 45 61 67 91 -3
21 75 3 19 19 5 3 41
13 19 3 -5 19 25 -7 39
27 65 -55 -37 9 11 -27 41
23 -5 -27 -59 37 29 15 -17

18 -94 -40 -118 16 -62 46 -28
-46 -92 -100 -110 -70 -54 -52 -18
38 30 16 -72 -106 -74 -58 -36
14 36 36 -26 -34 -60 -60 30
42 -32 24 8 4 -82 -64 -58
-2 -32 -12 12 16 -2 -26 28
4 -38 -26 -4 -38 -52 -58 -34
16 12 22 -22 10 -22 16 56

21 53 55 125 119 173 61 3
29 95 63 61 53 85 27 5
5 -79 -57 -65 -39 -7 -19 -53
-71 -41 -17 -51 5 -13 -13 21
-43 -45 -45 -25 -13 -35 11 33
-71 -49 3 -21 -45 -23 17 23
-5 -35 -19 43 37 83 77 69
-121 -5 -111 45 -39 33 -61 19

